1204 128
</s> 0.003127 0.003453 -0.002992 -0.002561 0.001068 0.002360 0.000735 0.000165 -0.002815 0.001733 -0.003403 0.000976 -0.000587 -0.000748 -0.002590 -0.001470 0.002015 0.002364 0.002320 0.001248 0.001207 -0.002971 -0.003200 0.003883 0.002970 0.002414 -0.000472 0.003137 -0.000387 0.000574 -0.000117 -0.002331 0.001025 -0.001045 -0.002989 0.003714 0.003421 -0.000856 -0.000177 0.000398 -0.002842 -0.003131 0.003558 0.000049 -0.002017 -0.002377 -0.002403 0.001326 0.000157 0.001040 -0.003292 -0.002975 -0.000102 0.000893 0.001992 -0.002477 0.003187 0.000724 0.000875 -0.000475 0.002333 -0.001787 -0.001639 0.001686 -0.000588 0.000805 0.001410 -0.003194 -0.001549 0.002276 0.003306 0.003072 -0.002380 -0.001647 -0.000710 0.001564 -0.002960 0.002342 0.002178 -0.001249 -0.001212 -0.001749 0.003304 0.003056 -0.000922 0.003293 0.003766 0.001418 0.003893 -0.002431 -0.001197 -0.001646 -0.002271 0.002199 0.001234 0.000332 -0.001714 0.001191 0.002390 0.000151 0.001781 -0.003869 0.003371 0.000375 -0.001431 -0.001628 -0.000584 -0.002293 -0.003414 -0.002216 0.003341 -0.001383 -0.002093 0.001810 -0.001331 0.003716 -0.001254 -0.003585 0.002122 -0.000058 -0.002726 0.000762 0.001127 -0.000376 0.001425 -0.003092 0.000688 0.001419 
item_50 -0.082881 -0.018071 0.008252 -0.106537 0.135267 0.271885 -0.041277 0.093413 0.064768 0.001871 -0.024143 -0.154779 -0.085404 -0.129195 -0.051240 0.002528 -0.048371 0.323917 0.148479 0.114558 -0.333106 -0.040270 -0.173599 -0.075188 0.101997 -0.058703 0.239843 0.004096 -0.101378 -0.311566 -0.074031 0.184143 0.098276 -0.035659 0.091842 -0.073179 -0.103383 0.296365 -0.051184 0.086337 -0.112238 -0.118856 0.155774 -0.096242 0.020775 -0.165589 0.142922 -0.189441 -0.186631 -0.118081 -0.042107 0.008651 -0.130534 0.347507 0.053988 0.255648 -0.186222 -0.005723 0.057812 0.138882 -0.003532 0.036678 -0.158688 0.005272 0.025550 0.039941 -0.142626 -0.100646 -0.019247 -0.114387 0.332491 -0.164508 -0.095421 0.149933 0.278700 0.027223 0.146737 0.059180 0.018711 -0.061390 -0.051232 0.121841 -0.609876 -0.106215 0.003607 0.262596 0.274435 0.123485 0.248752 0.050314 -0.052649 0.158436 -0.094139 0.008298 -0.061970 0.229393 -0.144480 -0.265624 0.350106 -0.146163 -0.112294 0.193250 0.003120 -0.031208 -0.136454 0.060541 0.197958 -0.257429 -0.051379 0.177136 0.123492 -0.159334 0.119441 0.071411 -0.306172 0.281069 -0.282778 0.021366 0.129518 -0.028199 -0.054618 0.190293 0.221144 0.010452 -0.081127 0.040773 0.369474 -0.150533 
item_181 0.036849 -0.117333 -0.200112 -0.244324 -0.282873 0.223907 -0.215189 -0.196454 0.029389 -0.210237 0.019672 -0.188351 0.234482 -0.281012 0.038114 0.056229 0.065996 0.165169 0.182330 -0.240865 -0.400227 0.150070 -0.217258 -0.079826 -0.242882 -0.036358 0.109533 -0.003286 -0.060733 0.069453 -0.075019 -0.148262 -0.070827 0.163226 -0.045165 -0.256270 0.107281 -0.065320 -0.155355 -0.050632 -0.170881 -0.076870 -0.086427 -0.164069 0.046958 0.028447 0.007625 0.002955 0.006083 -0.086607 -0.177214 0.013934 -0.380986 0.198841 -0.024749 -0.059911 0.097464 -0.081816 0.068132 0.038666 0.092374 0.121009 0.068042 -0.008165 -0.149946 0.030598 0.173834 -0.090336 0.011554 -0.231021 -0.055904 -0.023041 0.132560 -0.250266 0.227850 0.117027 0.196772 0.133373 0.183788 0.260023 -0.054897 -0.194726 -0.363510 0.265658 -0.320162 0.109409 -0.148830 0.391307 0.355435 0.180901 -0.013103 0.416589 0.074996 -0.182874 0.115447 0.193118 0.221288 0.023032 0.221532 -0.145280 -0.081062 0.127843 0.104520 -0.171484 0.247276 0.189882 0.023419 -0.148385 -0.206034 0.093370 0.283127 -0.057988 0.207090 0.376774 0.097428 0.010835 -0.109731 0.066222 -0.000301 -0.187846 -0.042816 0.111766 0.079050 -0.240219 0.017261 -0.231592 0.355356 -0.188235 
item_100 -0.052675 0.066210 0.283271 0.117701 -0.379208 0.230471 0.071212 -0.182762 -0.283576 0.079418 0.486700 -0.000823 -0.022733 0.112250 0.075717 0.008921 -0.082411 0.158568 0.218461 -0.136534 -0.120514 0.287492 -0.172731 0.172156 -0.572332 0.014342 0.093637 0.183198 0.146939 0.137157 0.053473 0.126368 -0.168552 0.093811 0.196484 -0.176507 0.126615 0.014425 0.187503 -0.012720 0.048680 -0.267668 0.129101 -0.065388 -0.119712 0.060631 0.077597 0.169396 -0.219765 0.066758 -0.125138 0.117384 -0.193003 0.205501 0.104078 0.269234 -0.068819 0.094512 -0.156886 -0.034016 0.071258 0.010300 -0.095267 -0.083806 -0.023559 0.068873 0.028888 0.284566 0.368871 0.040758 0.302190 -0.035284 -0.255170 0.183082 -0.070833 -0.226610 0.036308 0.034963 0.382332 0.062370 0.126088 0.027583 -0.534734 0.001219 0.313895 0.041308 -0.013179 -0.044121 0.312676 -0.211238 -0.190462 0.148363 -0.278369 -0.052606 -0.105551 0.064537 0.189114 -0.017579 -0.038802 -0.374237 0.068403 0.163132 -0.012046 -0.025702 -0.052653 0.051879 0.172162 -0.133957 -0.169637 -0.061394 0.012532 -0.117256 0.063458 -0.178338 -0.317109 -0.043743 -0.087364 0.292363 0.171378 -0.258281 -0.214036 0.080040 0.168526 -0.083514 -0.056627 -0.015158 0.027645 -0.100237 
item_258 -0.064095 -0.109019 -0.118808 0.115325 0.161345 0.128239 -0.079859 -0.173035 0.189026 -0.096240 0.262100 -0.020989 0.270408 -0.131498 -0.064025 -0.075145 0.229206 0.338736 0.174568 0.098306 0.007987 -0.202898 -0.256178 -0.145733 0.025621 0.284394 0.061442 -0.137547 0.032781 -0.064255 -0.123024 -0.086585 0.129696 0.062944 0.083252 -0.321342 0.024615 0.052143 -0.052249 0.193434 -0.128927 -0.327498 0.191877 0.085268 0.113468 -0.050978 -0.068845 0.159913 0.201021 0.077985 -0.406037 -0.097929 -0.102479 0.464446 0.090939 0.074868 0.005884 -0.068370 -0.046397 0.060127 -0.013232 0.219371 -0.210571 -0.130916 0.054677 0.270764 0.024344 -0.013618 0.268575 -0.236844 0.403536 0.122825 -0.281711 0.324886 0.260390 -0.205360 0.299275 0.310271 0.158511 -0.002796 -0.012228 0.053413 -0.551146 0.049758 -0.078247 0.199040 -0.106234 0.134392 0.062273 -0.207771 -0.113786 0.019314 -0.325885 0.039489 0.111871 0.237628 0.036533 0.426892 0.069695 -0.136301 0.015810 0.519144 -0.005621 0.061094 -0.343517 0.257824 0.171098 -0.249680 0.068071 0.137295 0.337905 0.288690 0.088305 0.172649 -0.028360 0.118366 0.245236 0.200107 0.073570 -0.094305 -0.184227 0.197749 0.185645 0.163860 0.193510 -0.098691 -0.032385 0.143826 
item_1 0.032933 0.093834 0.002031 -0.070454 0.054502 0.090663 -0.022477 0.032790 -0.003251 0.150071 -0.203127 -0.114506 0.211376 -0.199746 0.151832 0.422801 0.273863 0.104959 0.154578 -0.082783 -0.144385 0.141595 -0.176967 -0.139996 -0.138278 0.017896 -0.030123 -0.021551 0.154549 -0.082318 -0.081529 0.102998 -0.012082 0.011846 -0.052708 0.009068 0.130691 0.281204 -0.136511 -0.039346 0.021098 -0.294062 0.125588 0.088846 0.112248 0.078839 -0.115296 0.254285 0.206502 0.057320 -0.006264 -0.301101 0.079873 -0.247336 -0.095361 0.250049 -0.049769 -0.114823 -0.099967 -0.096357 0.089058 -0.202984 0.289417 -0.177336 -0.098958 0.229498 -0.010028 -0.011886 -0.134914 -0.241774 0.182286 0.061885 0.076752 0.175707 0.116134 -0.357211 0.367102 0.154798 -0.117123 -0.043849 0.245877 0.037272 -0.419716 -0.096743 0.215464 0.079377 -0.054234 -0.050587 0.224889 0.059102 -0.155691 0.164289 0.562964 -0.137089 0.002501 0.088446 -0.165056 0.044043 0.128765 0.161921 0.198471 0.358596 0.131164 -0.243259 -0.009513 0.061827 0.358215 0.215421 0.126906 -0.209607 0.342995 -0.020365 0.278930 0.551895 0.013303 -0.032599 0.083551 0.171501 0.112406 -0.041084 0.107224 0.231356 0.396114 0.113445 -0.145606 -0.233788 0.291100 -0.270663 
item_174 0.227536 -0.137377 0.039236 -0.021896 -0.382164 0.018858 -0.210833 -0.352250 -0.072282 -0.168454 0.123160 -0.278314 0.190508 -0.041547 0.006313 -0.222329 -0.080486 0.114668 0.089641 0.352886 -0.132336 -0.267329 -0.018272 0.091784 -0.110258 0.027388 0.109876 -0.200296 -0.035181 0.122161 -0.180346 0.014482 -0.241598 0.024277 0.125277 -0.205699 0.180853 -0.054337 -0.022227 0.209079 -0.084192 -0.140101 -0.170082 0.040194 -0.033122 0.142215 -0.206663 0.047539 0.164422 -0.045558 -0.157400 -0.139715 0.079912 0.156310 0.111894 0.169279 -0.039651 0.089951 -0.056791 0.426240 0.113256 0.133811 0.129680 0.035497 0.229165 0.022095 0.192755 -0.178000 0.221593 0.141426 0.317993 -0.037674 -0.070271 -0.028069 0.044859 -0.281044 0.353013 0.011654 -0.058733 -0.449716 -0.077813 -0.071676 -0.500665 0.042049 -0.258772 0.221087 0.051811 -0.336945 0.008958 0.031012 -0.101052 0.123239 -0.055094 -0.256288 -0.148745 -0.024247 0.081063 0.261364 -0.228651 0.104693 0.059660 0.146690 0.402037 -0.068222 -0.069529 -0.344808 0.022140 0.442336 -0.137936 0.133441 0.298311 0.122155 0.051298 0.122042 0.143790 0.142231 -0.314192 -0.219590 0.140225 -0.000423 -0.132395 -0.115952 0.192259 -0.126971 -0.156153 -0.055620 0.304264 0.063914 
item_286 0.104831 -0.180250 0.252895 0.224434 0.206603 0.027609 -0.125289 -0.221310 0.195651 -0.196935 -0.118670 -0.047947 0.244835 0.094999 -0.121344 -0.150851 0.119807 0.265688 0.175252 -0.196169 -0.207314 -0.149548 -0.174206 -0.018035 0.225293 0.272736 0.328083 -0.194343 -0.095329 0.050319 0.173508 0.311749 -0.335793 -0.156718 -0.206993 0.167266 -0.438635 -0.092302 -0.062800 -0.258120 -0.146225 -0.216115 0.094043 -0.429697 -0.016028 -0.381308 0.110025 -0.141489 -0.143837 0.101019 -0.015972 0.060696 0.220662 0.008579 0.077563 -0.074818 -0.117819 0.046976 -0.012405 0.005151 0.197463 -0.001768 0.068298 0.263530 0.096138 0.052400 -0.137769 -0.312207 0.213074 0.084455 0.033423 -0.224685 -0.149515 0.201244 0.126751 -0.118659 -0.015095 0.246462 0.352102 -0.162877 -0.041627 -0.254294 -0.145947 -0.021556 0.064786 -0.097552 0.025613 0.103919 0.181323 0.362560 -0.043018 0.133339 0.093599 -0.303095 -0.110819 0.040388 0.192986 0.015452 0.223400 0.047953 0.247536 0.554438 0.075869 -0.225972 -0.050848 0.022432 0.377947 -0.103712 0.227023 0.084569 0.027596 -0.041079 0.368335 0.140212 0.000964 -0.068269 0.000821 0.067743 0.274138 -0.448971 -0.110881 0.079152 0.580919 0.069041 -0.062103 -0.059942 0.112972 -0.018866 
item_288 -0.096598 0.346928 -0.020360 -0.000356 -0.001557 -0.135347 -0.480170 -0.213412 -0.053664 0.065144 0.059795 -0.202085 0.395690 0.030305 -0.248125 0.437519 0.232674 0.216383 0.093121 0.343507 0.214311 0.303444 -0.185912 0.124348 0.084138 0.158574 -0.140849 -0.000091 0.204877 0.027354 0.179572 -0.084954 -0.093906 0.202273 0.134050 -0.033382 0.348282 -0.422222 0.029360 0.117869 -0.349011 -0.173686 0.366215 0.042063 0.000140 -0.167252 -0.052895 0.268077 0.026943 0.126934 -0.078050 0.060533 -0.307716 -0.023382 -0.020451 -0.017560 0.005629 -0.057931 -0.010814 -0.055746 0.054532 0.253436 -0.035340 0.029222 -0.044509 -0.224064 0.003180 0.101414 0.014723 -0.221227 0.348907 0.272851 -0.150901 0.183862 0.130754 -0.296614 0.164507 -0.253960 -0.050030 0.482137 -0.138798 0.105526 -0.557919 -0.089338 -0.186229 0.140738 -0.192524 -0.088450 0.096876 -0.329157 -0.018646 -0.089258 -0.050124 0.149626 0.163606 0.256704 0.129067 -0.151059 -0.219981 -0.338345 -0.139610 0.690501 0.044429 -0.087534 -0.031262 -0.004280 -0.011398 -0.189404 0.025392 -0.303492 0.299657 0.233910 -0.091983 0.186853 -0.119128 -0.064952 0.454614 0.124169 -0.028090 -0.083916 -0.153428 0.042514 0.359999 -0.002642 0.022559 -0.254726 0.293716 -0.587176 
item_127 -0.008014 -0.115374 0.241127 0.395150 -0.245800 0.021793 -0.012668 -0.430770 -0.081665 -0.116324 0.008675 -0.205702 0.179096 0.230366 -0.237581 0.092139 0.260422 0.304497 0.173620 -0.168372 -0.237417 -0.129664 -0.389925 0.253897 -0.258718 0.210252 -0.331021 -0.013045 0.080366 -0.097033 0.382845 0.151156 -0.090030 -0.079227 -0.107060 -0.253908 0.117311 0.295609 -0.304573 0.153304 0.117737 0.071317 0.068674 0.065714 0.113417 0.148257 0.455595 0.152821 0.070568 -0.060717 0.083630 -0.306005 -0.160920 -0.143796 0.095450 0.051073 -0.072103 0.158153 0.120862 0.125240 0.031574 -0.191039 -0.009131 -0.187351 -0.322582 -0.114989 0.016648 -0.010736 0.157449 0.102128 0.099785 0.054332 0.159332 -0.130128 0.044695 0.124806 0.134216 -0.090052 0.294799 0.249214 -0.140146 0.170594 -0.481903 -0.006039 0.109517 0.004305 0.090224 -0.003175 0.217572 0.204357 -0.180922 0.134525 -0.007622 -0.193597 0.118985 0.340097 0.068208 0.036591 -0.116866 -0.379180 -0.199846 0.272967 0.137773 -0.281419 0.314335 -0.145827 0.259030 0.025500 0.166029 -0.434594 -0.132891 0.165731 0.130446 0.223427 -0.194894 -0.139790 0.278783 0.011895 0.116390 0.138833 0.221980 -0.052207 0.141732 -0.063414 0.170285 0.031396 0.353445 0.118764 
item_300 0.292084 0.213098 0.186536 0.071286 0.140714 -0.043744 0.148803 -0.280969 -0.067703 0.170581 -0.119611 -0.469015 0.300942 0.247578 -0.067615 0.208788 0.404639 0.325477 0.122559 -0.016114 0.037597 -0.076499 0.119815 -0.004824 0.149306 0.130519 0.040835 -0.423788 -0.201534 0.007118 0.028235 0.051282 -0.040285 0.174494 -0.080664 -0.061160 -0.197477 0.103013 -0.037409 0.103500 -0.180598 0.019584 0.108031 -0.142824 -0.004131 -0.086727 0.076184 0.119085 0.097579 -0.146147 -0.294439 -0.019457 -0.136738 -0.009992 0.084736 0.228297 -0.095062 -0.015219 -0.231543 0.036052 0.164638 0.369437 -0.279221 0.027271 -0.103567 -0.063945 0.005615 0.151104 0.028732 0.152159 0.161753 -0.136940 -0.051410 0.235900 0.131329 -0.126317 -0.042096 0.232004 -0.067563 0.087468 -0.003685 -0.373038 -0.410753 -0.081217 0.148995 0.010208 -0.450047 0.232488 0.097256 0.018695 -0.181998 -0.192650 -0.269263 -0.325368 -0.144316 0.541537 0.509205 0.430357 0.121182 -0.071063 -0.025191 0.222341 0.327087 0.008145 -0.306750 0.214327 0.117233 -0.289581 0.124231 -0.154110 -0.009003 0.077381 -0.165778 -0.011005 -0.008454 0.164135 0.192195 -0.084899 0.108776 -0.188432 0.033669 -0.140675 0.401525 -0.142912 -0.058391 -0.175301 0.347200 -0.355494 
item_98 0.142934 0.193259 0.114209 0.192589 0.101278 -0.048963 0.238612 0.095221 0.055079 0.074356 0.426749 0.077590 -0.090699 -0.077820 -0.127815 -0.215139 -0.054046 0.256867 0.183315 0.107561 -0.237343 -0.182288 0.244571 0.258073 0.161945 0.027893 -0.068442 0.036509 0.086664 0.039983 -0.123570 0.114380 -0.185052 -0.002662 -0.320041 0.002946 -0.157415 0.027499 0.325930 -0.257874 -0.320525 0.095695 -0.083306 -0.160913 0.023250 0.177563 -0.012455 -0.396346 0.030689 -0.093720 0.035989 0.073512 0.077576 -0.122764 -0.131808 0.061148 -0.104743 0.142535 0.156321 -0.057505 0.032012 -0.282581 0.025136 0.101556 0.296426 0.010812 0.228653 -0.228881 0.120601 0.047943 -0.055123 -0.243586 -0.369074 0.109045 0.043169 -0.040201 -0.067643 0.226770 0.069586 0.096088 -0.115417 0.334889 -0.834305 0.154532 0.051400 -0.140511 -0.112702 0.055554 0.142370 0.355852 0.170051 -0.134276 -0.100401 0.002089 0.051798 0.094443 0.202754 -0.143587 0.017105 0.091730 0.078702 0.347671 0.185861 0.044382 0.194831 0.045568 -0.066189 0.065134 -0.148474 0.056939 -0.032612 0.204182 -0.084260 0.074833 -0.115820 -0.152606 0.190224 -0.048553 -0.048700 -0.056580 0.027333 -0.149326 0.062331 -0.145025 -0.229218 -0.151657 -0.046164 0.102505 
item_294 -0.089464 -0.292360 0.157760 -0.161088 -0.007512 -0.350964 0.205071 -0.038203 0.082173 -0.203339 0.002958 -0.279606 0.121587 0.060694 -0.197225 0.273650 0.055886 0.020855 0.002679 0.175664 -0.274428 0.053070 -0.171037 0.109902 0.023486 0.443684 0.204753 -0.142489 -0.052000 -0.195068 0.219207 0.194835 -0.117262 0.038831 -0.131221 -0.098214 -0.103222 -0.054129 -0.079208 0.001015 -0.173879 0.064262 -0.157327 -0.148008 0.315171 0.386563 -0.259755 0.113862 0.167742 -0.132112 -0.153743 0.161045 -0.203280 -0.152906 -0.193901 -0.072253 -0.058259 0.063816 0.128118 0.074016 0.267099 0.220648 -0.004790 -0.201588 -0.194238 0.319621 0.103594 0.041354 -0.190317 -0.265583 0.213089 -0.055528 -0.033295 0.331768 0.062425 -0.299408 0.267916 -0.177348 -0.174054 -0.317182 0.006908 0.208376 -0.529862 -0.010990 0.047718 -0.131306 -0.308623 0.160150 -0.007283 -0.046927 -0.014678 -0.122455 0.016540 0.136943 0.104504 0.001013 0.489271 0.336854 0.027448 -0.164326 0.022122 0.420951 0.099243 -0.056688 -0.076609 -0.097579 0.412290 -0.108664 0.313071 0.215213 0.263468 -0.176098 0.233950 0.182006 0.170822 -0.131352 0.185638 0.018426 -0.034227 -0.200387 0.060492 -0.099861 0.136968 0.216675 0.082080 0.280661 0.094757 -0.285555 
item_7 -0.184003 0.121405 -0.076349 -0.098943 0.146510 0.214746 -0.143836 -0.055660 0.085126 0.105027 0.124548 -0.110756 0.188520 0.142307 -0.565627 -0.121001 -0.086713 -0.195843 0.213919 0.237404 -0.262250 -0.052497 -0.327669 0.150731 -0.235609 -0.116272 0.382313 -0.000105 -0.149441 -0.082551 0.010635 0.181606 -0.103292 -0.087768 0.010199 -0.157796 0.010846 0.021885 -0.098706 -0.021666 -0.360044 -0.077118 -0.053435 0.031611 0.273493 0.075520 0.262240 0.177427 -0.099676 -0.242457 -0.031960 -0.179301 -0.149159 0.195087 0.122480 0.228518 -0.127613 0.107297 0.140771 -0.161684 -0.063054 -0.015829 -0.210670 -0.023320 -0.077928 -0.022488 -0.043950 0.194656 -0.102619 0.181344 -0.065997 0.122453 -0.042726 0.191145 0.128687 -0.186954 0.210613 0.009763 0.046399 0.252070 -0.184900 0.189236 -0.582006 -0.433199 -0.078404 -0.050655 -0.053605 -0.033524 0.468116 0.194393 0.013407 -0.046718 0.077636 0.132136 -0.051894 0.123359 -0.128666 0.072002 0.038227 -0.480416 -0.213125 0.449515 0.200469 -0.043044 -0.155421 -0.090001 0.077846 -0.044128 0.071842 -0.196341 0.287225 -0.166841 0.011040 -0.009793 -0.129286 0.040004 0.134943 0.168689 0.020574 0.049845 -0.046313 0.118636 -0.021923 0.053480 -0.101821 0.117798 0.078224 -0.169498 
item_56 -0.205295 -0.013326 0.125307 -0.089383 0.314887 -0.039002 -0.202892 -0.063060 -0.268756 0.161729 0.025447 -0.060604 -0.097193 0.097607 0.101421 0.074062 -0.204284 -0.084950 0.058837 0.227374 0.105536 -0.167859 -0.223911 -0.340967 -0.187809 0.057443 0.079509 -0.013886 -0.380324 0.218566 -0.150079 0.072657 -0.133488 -0.311123 0.292171 0.135642 -0.198823 -0.006217 0.096150 0.245065 -0.070500 -0.139851 -0.340589 0.088323 0.060111 -0.190195 -0.058885 -0.178888 -0.073895 -0.246848 0.068035 -0.038754 -0.030740 -0.105609 0.119187 0.119624 -0.118536 -0.034735 -0.062342 0.317677 -0.143515 0.297142 0.163597 0.003561 0.108028 0.112884 0.086801 0.125058 0.018633 -0.277464 0.205676 -0.117892 0.022337 0.250520 -0.157978 -0.087027 -0.409358 0.326310 -0.069740 0.251089 -0.077552 0.112038 -0.583775 -0.101760 0.108068 0.031014 0.152410 0.090711 0.159370 -0.151894 0.078936 -0.004037 0.240518 -0.207864 0.268393 -0.087019 0.306980 -0.081589 0.423450 -0.267039 0.202766 0.256021 0.027107 -0.215234 0.243445 0.018387 -0.013270 0.194440 -0.195164 -0.038888 0.137627 -0.044598 0.075069 -0.126814 0.002707 -0.027841 0.163728 0.035181 0.310580 -0.078541 0.111504 -0.171137 0.114967 -0.315456 -0.127804 0.213863 0.075086 -0.218803 
item_172 -0.131490 -0.053383 -0.198949 0.000925 0.054269 0.313368 0.055328 -0.096077 0.127455 0.012797 0.115937 -0.130793 -0.054421 -0.255457 -0.004060 -0.059948 0.209271 0.045803 0.118741 0.028418 -0.129647 -0.174180 0.285216 0.000454 0.222446 0.002515 0.113578 0.014510 -0.313017 0.066686 0.105007 -0.148186 -0.043550 -0.178416 0.005941 -0.015408 -0.007035 0.114527 -0.251657 0.038526 -0.116549 0.152035 -0.449911 -0.183282 0.272609 -0.067817 -0.232082 -0.021100 -0.080021 0.020255 -0.176001 -0.004210 -0.369484 -0.035303 0.075461 -0.055247 -0.170402 -0.061229 0.084102 -0.011290 0.251569 -0.120102 -0.218810 0.001564 0.317156 0.170286 0.103055 -0.026081 0.078548 -0.276094 0.210658 -0.403110 0.127237 0.186727 -0.012935 -0.206558 0.149826 0.081732 0.194554 -0.216933 -0.150872 -0.103086 -0.745649 0.193453 0.288866 -0.058732 0.281979 -0.370278 0.092767 -0.096180 0.126117 -0.081689 0.131488 0.190743 -0.249922 -0.262993 0.092314 -0.217311 0.292075 -0.020331 0.333557 -0.090476 0.103556 -0.236102 -0.089964 -0.453385 -0.178424 0.103483 -0.284288 -0.369328 -0.129081 0.038666 0.082520 0.087189 0.085165 0.116631 0.127993 -0.051260 0.227214 -0.151132 -0.121210 -0.080130 0.003129 -0.104854 -0.208257 -0.113023 0.107749 0.182121 
item_237 0.023233 0.127948 -0.260443 0.304983 -0.004051 -0.030450 -0.462274 -0.084840 0.334024 -0.037417 -0.030185 -0.179041 0.056410 0.298754 -0.170419 -0.083673 0.039359 0.570191 0.018908 0.006023 0.050815 0.188854 0.171074 0.154931 -0.175329 0.245336 -0.077403 0.181905 0.065034 -0.033856 0.102636 -0.082125 -0.253175 0.087672 -0.225183 0.016208 0.007465 0.178806 0.171148 -0.037595 0.075829 0.101035 0.062250 0.124482 0.090553 -0.096739 -0.035830 0.240473 -0.085549 -0.092784 -0.304180 0.106366 0.106675 -0.027356 0.199838 -0.142868 -0.183738 -0.088079 0.089273 0.146992 0.097855 0.007561 0.154145 -0.181642 -0.222458 -0.109248 -0.042929 -0.057260 0.059797 -0.458627 0.214996 0.390004 0.224562 0.291715 0.071153 -0.300649 0.201778 -0.045073 -0.021764 0.120296 -0.509494 -0.009451 -0.563696 0.025104 0.179790 -0.125871 0.054827 0.152394 0.294467 -0.044131 0.050651 0.040896 0.117528 0.401276 -0.259897 0.236997 0.232431 -0.274518 0.284451 -0.478420 -0.009007 0.531050 0.441813 -0.098555 -0.131116 0.442080 0.124200 -0.203217 0.034428 -0.038692 0.317983 -0.315886 0.188709 0.499405 -0.009201 -0.141979 -0.026286 0.212040 0.247726 -0.509866 0.115933 0.018709 0.235296 0.155717 0.476784 0.061680 0.275336 0.088124 
item_121 0.157035 -0.144920 -0.217271 -0.260547 0.009662 0.332004 -0.018270 -0.303091 0.078316 -0.365033 -0.087625 -0.298386 0.153164 -0.076839 -0.134723 0.024913 0.020123 -0.131601 0.009770 0.217322 -0.119436 0.161916 -0.203032 -0.009358 -0.328420 -0.030244 0.061016 -0.124440 -0.065284 -0.062059 0.251220 0.029875 0.147235 -0.215185 0.131732 -0.311442 -0.004183 -0.248438 0.112446 0.034925 0.022040 -0.214425 -0.077591 0.039984 0.295114 0.161904 -0.002807 -0.085862 -0.054544 -0.022864 0.020233 -0.006191 -0.130157 0.029106 -0.053596 -0.013515 -0.291144 -0.075822 -0.030450 0.100597 0.214948 0.008114 0.310779 0.153047 -0.157203 -0.000066 0.006342 -0.144291 0.327914 -0.358519 0.322880 -0.177037 -0.087114 0.171255 0.568999 -0.164866 0.254078 -0.098191 -0.083809 -0.087288 -0.296403 -0.039816 -0.442509 -0.063012 0.022338 0.339216 -0.299899 0.195950 0.227469 0.051423 -0.299722 -0.105232 0.002111 0.207187 -0.153591 0.215202 -0.015249 0.139913 0.169226 -0.388838 0.114957 0.554480 0.057732 -0.230963 -0.245969 0.056127 0.120727 -0.107832 -0.081759 0.058833 0.110445 -0.133647 -0.010383 0.110960 0.154490 0.237497 0.170030 -0.003639 -0.009506 -0.031460 -0.078399 0.108354 0.118908 -0.240644 -0.106083 0.042069 0.063917 -0.563329 
item_117 -0.163903 -0.604752 -0.123269 0.110666 -0.211456 -0.267245 -0.143531 -0.417216 0.222206 -0.151620 0.149286 -0.107053 0.218759 -0.209726 -0.076707 0.013573 0.054866 0.117015 0.265124 -0.294641 -0.494526 0.169563 0.078191 -0.307590 -0.109989 -0.032114 0.025045 0.414652 -0.302652 0.054932 -0.009281 -0.103870 -0.165287 -0.087116 -0.084882 -0.119919 0.288244 -0.149013 -0.084759 -0.012262 -0.193474 -0.265566 0.157320 0.024919 0.004803 -0.144014 -0.045372 0.051946 0.456113 0.117835 0.010409 -0.199420 -0.446817 0.029837 0.207728 0.081426 -0.348152 0.114914 0.077885 -0.221889 -0.127924 0.248501 -0.064544 -0.143263 -0.105117 0.110522 -0.158464 -0.002241 0.086419 -0.183055 0.275861 -0.083436 0.333225 0.262868 0.032137 -0.183305 -0.021376 -0.247320 0.244417 -0.061684 -0.282385 -0.107372 -0.498362 -0.237193 0.220510 0.100149 -0.102575 -0.153990 0.518438 0.059890 -0.095529 -0.033686 -0.294276 -0.165999 0.007742 -0.005986 -0.061492 0.101619 0.378257 -0.141380 0.030577 0.097930 0.092947 -0.137449 -0.186522 0.148680 0.076944 -0.163977 -0.025811 0.205678 0.211843 -0.427341 -0.084859 0.371983 -0.191882 -0.008865 -0.085665 0.038859 0.450389 0.091348 0.243500 -0.006496 0.023551 0.090669 -0.002526 -0.179498 0.242476 -0.146624 
item_222 -0.047287 -0.184414 0.016091 -0.054305 0.112717 0.084367 0.147655 -0.597538 0.228660 0.032421 0.403035 -0.328758 0.067982 -0.208068 -0.221332 -0.017005 0.113590 0.282436 0.384613 0.130898 -0.305668 -0.183963 -0.175648 -0.158488 -0.051025 0.107575 -0.221636 0.051126 -0.188866 -0.054005 -0.038009 0.226724 -0.055688 0.136293 -0.132672 -0.038819 0.178926 0.182594 0.207909 -0.206118 -0.087207 0.124404 -0.192262 0.163255 -0.352187 0.033499 0.007164 0.072048 0.087336 -0.323941 -0.053930 0.078933 0.012182 -0.053643 -0.225720 0.077068 0.376085 0.077876 0.284315 0.026353 0.030411 0.163504 -0.035816 -0.367004 0.116682 0.134580 -0.286223 -0.283194 0.106286 -0.029093 -0.011937 -0.121747 0.069145 0.148558 0.273877 -0.360810 0.131249 -0.135248 -0.406444 -0.278889 0.013766 0.245577 -0.448179 0.034325 0.065249 -0.082454 -0.393448 -0.129560 0.269663 -0.153270 -0.232057 -0.261081 -0.188375 0.018425 0.047285 0.351467 0.088311 0.023306 0.281154 -0.075121 0.285776 0.353749 0.326554 -0.111087 -0.158397 -0.294998 0.229936 0.204748 -0.015345 0.071471 0.199134 -0.044189 0.251778 0.270123 -0.294762 0.197393 0.116417 0.122458 0.356413 -0.256318 -0.115227 0.331684 0.230464 -0.075993 0.085465 -0.343267 0.119889 0.098716 
item_204 0.071760 0.190065 -0.186857 -0.005204 -0.021785 0.212382 0.026660 -0.144845 0.087932 0.376916 0.053222 -0.061993 -0.128742 -0.138851 -0.115977 -0.147162 0.044987 0.094887 -0.095125 -0.003041 0.038185 -0.333627 0.084588 -0.018005 -0.033966 -0.221807 0.140082 -0.062236 0.047314 -0.068507 -0.076984 0.221531 0.167930 -0.085885 0.075973 0.000548 -0.341399 -0.254875 0.082012 0.131041 0.227513 0.184344 0.180781 0.197357 0.165802 -0.044253 0.094729 0.065929 -0.252708 -0.175981 -0.018700 0.044333 -0.210803 0.204387 0.347090 -0.300216 -0.135506 0.316548 -0.018385 -0.093143 0.050098 -0.195606 -0.212392 0.235392 0.292204 0.180611 -0.087696 -0.074837 0.283682 -0.001999 -0.032234 -0.115410 0.207402 0.012501 0.238676 0.020551 -0.095589 -0.021188 -0.104950 0.219732 -0.190504 0.117922 -0.700868 0.017915 0.247165 -0.184949 -0.055954 -0.008870 0.226478 -0.097057 -0.127592 0.262393 0.093000 -0.141413 -0.129147 -0.147095 -0.235181 0.052225 0.078548 -0.346324 0.237022 0.000070 -0.139108 0.013789 0.110442 0.015570 0.279840 -0.051642 0.166989 0.241156 0.113919 -0.329198 0.279307 0.189336 -0.019845 0.160685 0.020737 -0.394439 0.308858 0.099066 0.238639 -0.043206 0.050904 0.151580 -0.436755 0.154976 -0.071948 -0.098072 
item_313 -0.067161 0.047138 0.216915 0.056756 0.344466 -0.044295 0.027843 0.089551 0.141467 0.155044 0.258832 0.097554 0.221235 0.195684 0.130620 -0.173885 0.174375 0.057495 0.218517 -0.322291 -0.301514 -0.061633 -0.316531 0.332644 0.106629 0.264851 0.262258 -0.326112 -0.096852 -0.168446 0.398151 -0.242670 -0.220845 0.093756 0.209785 -0.154059 -0.238396 0.190399 0.111507 -0.051894 -0.046709 -0.228950 -0.019750 -0.246482 0.029931 -0.074856 0.104764 -0.159338 0.071715 -0.145707 -0.628035 -0.244868 -0.399022 0.160119 0.118505 -0.160023 -0.034095 -0.025916 -0.129111 -0.136364 -0.121239 -0.182235 -0.125604 -0.064569 -0.491292 0.048418 -0.025918 0.143000 0.183288 -0.402570 0.413172 -0.180176 0.205991 0.301342 0.317294 -0.366540 0.226729 -0.022636 0.009474 0.073310 0.083460 -0.369122 -0.320896 -0.290470 0.112782 0.127401 -0.299903 -0.314576 0.339670 -0.364519 -0.041061 0.261001 0.036522 -0.240348 0.001161 0.016452 0.183880 0.137903 -0.114676 -0.124962 0.120133 0.591000 -0.092509 -0.281284 0.137835 0.055146 0.170292 0.001861 0.047121 0.157610 0.133006 0.177737 0.227992 0.252596 -0.209683 0.044163 0.289978 0.275188 0.217225 -0.274039 -0.357995 -0.063184 0.192597 0.002378 0.107275 0.278569 -0.064589 0.225276 
item_79 0.126996 0.185335 -0.125915 -0.275765 -0.169893 0.117407 0.002443 -0.169847 -0.123110 0.170978 -0.314540 -0.314599 0.094547 -0.205795 0.098398 -0.234421 0.073462 -0.119290 0.242258 -0.100535 -0.057583 -0.285152 -0.030466 0.150568 0.093196 -0.268535 0.207539 0.093672 -0.130466 -0.195395 0.075121 -0.369553 -0.455122 0.339324 0.191105 0.140675 -0.084959 0.128070 -0.322678 0.055815 -0.158633 -0.025521 -0.061548 0.043064 0.085136 -0.011972 0.080474 0.180500 -0.171290 -0.346687 0.245249 -0.027153 -0.040598 0.449900 0.095893 0.175529 -0.142943 0.041666 0.115193 0.295148 0.324088 -0.062641 0.554147 0.207894 0.036367 0.188343 -0.039190 -0.110771 -0.090571 0.058544 0.612506 -0.012669 -0.050591 0.180212 0.128706 -0.129877 -0.152266 -0.159794 -0.087841 0.027958 -0.006556 0.153093 -0.480739 0.087940 0.236767 0.082295 0.012383 -0.035763 -0.032096 -0.058335 0.221479 -0.063464 -0.062131 -0.058656 0.066557 -0.167443 0.285669 0.413253 0.252911 0.039707 0.320024 0.020046 0.234055 -0.023221 -0.125569 0.062472 -0.039044 0.304882 0.122170 0.151021 -0.090728 0.095446 -0.039860 0.006466 0.076312 0.102062 -0.325344 -0.199897 0.002278 0.330425 -0.125202 0.014476 -0.045584 -0.055079 0.027232 -0.203169 0.262759 0.027239 
item_210 0.001305 -0.114064 0.246601 -0.271197 0.354951 -0.031212 0.179436 -0.107071 -0.131803 0.145569 -0.314408 -0.143089 0.359652 0.036230 0.040190 -0.127244 -0.199588 0.105999 0.244915 0.058860 -0.383352 0.158595 -0.158255 0.104422 -0.053230 -0.082258 -0.030380 -0.155675 -0.077682 -0.083925 0.078564 0.131265 0.148181 -0.223346 -0.230419 -0.077338 0.313017 -0.333654 0.220967 0.210258 -0.112763 0.045839 -0.565479 -0.188554 0.043360 0.172061 0.008929 -0.115149 0.028832 0.026443 -0.220420 -0.046654 -0.025948 0.426196 0.197942 -0.017248 -0.143933 0.014947 -0.042070 0.136427 0.323036 -0.109128 0.060232 -0.230076 -0.020459 0.110653 0.034881 0.003878 0.258142 -0.247811 0.041438 -0.377426 -0.432486 -0.042982 -0.151980 -0.357570 -0.139469 -0.031433 -0.068085 -0.184266 -0.183832 -0.264229 -0.675619 -0.046447 0.017048 -0.090284 -0.003408 -0.121530 -0.119936 0.005940 -0.074295 0.248213 -0.181733 -0.013270 -0.017285 0.140965 -0.006454 -0.102798 0.242614 -0.037319 0.109813 0.132978 -0.008945 -0.178751 0.293778 -0.268401 -0.000550 0.347715 -0.011645 -0.038498 -0.287131 0.010681 -0.044875 -0.042624 -0.145431 0.081509 -0.066211 0.074576 0.321417 0.049489 0.279193 -0.095411 -0.102230 0.159226 -0.114295 0.232079 0.118017 0.121508 
item_173 0.031915 0.142160 -0.124910 -0.174838 -0.109888 -0.078457 -0.522311 -0.298429 0.171984 0.044640 -0.004510 -0.159884 0.114957 -0.004595 0.017075 0.070277 -0.071720 -0.023617 0.096563 -0.259608 0.044317 -0.152704 -0.118901 0.556367 -0.158644 -0.167859 0.037220 0.195208 0.173813 0.053106 -0.065558 0.028916 0.058927 -0.344778 0.142176 -0.136777 0.400428 -0.254120 0.108209 0.154925 -0.030718 0.185071 -0.303526 0.236890 0.304296 -0.040171 -0.201426 -0.002568 -0.077158 -0.458062 -0.376594 -0.119809 -0.197258 -0.156917 0.217054 -0.019956 -0.123831 0.368188 -0.112756 -0.290656 0.196809 0.293409 0.035503 0.155470 0.152247 -0.069923 0.326928 -0.062666 0.056805 0.113299 0.080702 -0.044630 -0.049766 -0.158179 0.092115 -0.460105 -0.428675 0.114078 -0.177349 -0.053557 -0.076626 -0.156762 -0.622879 -0.192409 0.102863 -0.216034 0.017260 0.025941 0.195840 -0.125272 -0.235067 0.192096 0.161709 -0.084496 0.193627 0.282505 0.022680 -0.160965 0.269959 0.068663 -0.114390 -0.006688 0.307339 -0.109506 0.147135 -0.138306 -0.036605 0.178764 -0.018862 -0.023677 -0.068527 -0.086114 -0.066949 -0.193970 -0.061785 0.205562 0.099895 0.101040 -0.078675 0.077489 0.343106 -0.020992 -0.117922 0.153563 -0.222631 0.249066 0.342809 -0.026803 
item_168 0.015409 -0.638190 -0.291429 -0.008320 0.021664 0.193477 -0.342366 -0.295534 -0.235077 -0.440717 -0.079409 -0.031631 -0.026630 -0.153200 0.008869 0.100108 0.054642 0.002511 -0.166713 -0.009850 -0.359862 0.093047 -0.035932 0.161598 -0.155460 -0.122080 0.092398 -0.481667 -0.076929 0.033795 -0.097367 0.172290 0.130552 -0.340419 -0.070932 0.181279 0.035296 -0.022616 0.050914 0.154282 0.368268 0.272092 -0.036512 -0.003072 0.134019 0.180213 0.079980 -0.038667 0.285737 0.003460 0.261604 0.282867 -0.227136 -0.010552 0.251573 0.168704 -0.166712 0.292863 0.018668 -0.440856 0.036215 -0.110016 -0.067710 -0.089117 -0.066822 0.056906 -0.139027 -0.057793 -0.286578 0.041470 -0.054246 -0.086245 0.134870 -0.033869 0.164694 -0.311172 -0.151513 -0.013501 -0.042082 -0.047320 -0.159137 0.176873 -1.038428 -0.288023 -0.096591 -0.013253 0.345642 0.399226 -0.115525 0.311301 -0.243150 0.302976 0.059117 0.011772 -0.139656 0.190568 0.094793 -0.105867 0.341770 -0.090628 0.101440 -0.198203 0.029944 -0.133858 -0.081655 -0.367780 -0.372194 0.015523 -0.008920 0.288826 -0.335488 0.282110 0.068297 -0.067582 -0.246734 -0.210750 -0.107764 -0.181225 0.004289 0.000467 -0.304378 -0.110080 -0.063181 -0.012564 0.306061 -0.449794 -0.044980 0.022665 
item_269 0.059959 0.218056 0.467984 0.240405 -0.141679 0.215660 -0.003518 -0.199741 0.032198 -0.097766 0.083507 -0.033120 0.011224 0.180492 0.121244 -0.022027 -0.063625 0.313147 -0.049688 -0.122357 -0.387917 -0.171763 0.152432 -0.203507 0.100811 0.275881 -0.221166 -0.166403 0.139665 0.016716 0.192305 -0.191121 -0.339378 0.250272 -0.057522 0.161747 -0.269672 -0.117582 -0.010189 -0.117723 -0.079879 -0.071438 -0.258372 -0.076273 0.249153 0.198231 0.068703 -0.130354 0.215024 0.061275 -0.435500 0.059831 -0.146378 -0.057224 -0.025415 -0.268890 -0.070665 0.054148 0.009449 -0.040701 -0.075850 0.091988 -0.209745 0.067539 -0.172690 0.291966 -0.024443 0.399846 0.088773 0.155883 0.204135 -0.018996 0.222099 0.193614 -0.005439 -0.149312 0.282944 0.282792 -0.204905 0.140872 0.100516 -0.050229 -0.589637 -0.027213 0.402502 0.094190 0.164306 0.518460 0.237552 0.131204 -0.206479 -0.042945 -0.257889 0.146726 -0.165551 0.323878 0.267998 0.143719 -0.333711 -0.036879 -0.359640 0.308548 0.241155 -0.052090 -0.124794 -0.019136 0.211669 0.068972 0.346135 -0.238457 0.246281 0.732970 0.314676 -0.491841 0.013395 -0.011854 0.118064 -0.254396 0.011675 -0.417081 0.069000 -0.285013 0.074399 -0.084211 -0.337761 0.394957 0.317241 -0.144360 
item_318 0.044264 0.254494 -0.081470 -0.081448 0.026430 0.150987 -0.145279 0.328298 -0.017473 -0.272625 -0.063760 -0.030704 0.213516 0.020595 0.175947 -0.053956 -0.115716 -0.013745 0.103500 0.142968 -0.169455 0.044087 -0.308934 0.040703 -0.433061 -0.055364 -0.215063 -0.184748 -0.074557 0.157201 -0.056274 0.246509 -0.279887 -0.109553 -0.200653 -0.039644 0.132818 0.103631 0.032245 -0.190908 0.247044 0.312410 -0.258739 -0.016926 -0.027371 0.169123 0.254306 -0.110032 0.111081 -0.225962 -0.145724 -0.115142 -0.379768 0.397333 0.066546 0.474780 -0.156502 -0.059965 -0.335866 -0.285113 -0.329581 -0.182908 0.058990 0.106076 0.080037 0.097947 0.257789 -0.153930 -0.098988 0.170473 0.453965 0.057592 -0.088896 0.014364 -0.037231 -0.020623 0.280189 -0.215841 0.361604 -0.184015 0.208080 0.120293 -0.717465 0.056434 -0.146723 -0.131424 -0.038469 0.252800 0.422464 -0.004680 -0.220619 -0.014497 0.183459 -0.056950 0.363268 0.203552 0.163316 -0.348959 -0.247227 -0.106327 0.106146 -0.028297 0.149170 0.003211 -0.085846 0.201975 -0.045436 -0.221960 0.048148 -0.286349 -0.121527 0.116830 0.068967 -0.144583 -0.281964 0.061613 -0.077656 -0.284404 0.095227 -0.106722 -0.210765 0.127404 -0.093842 -0.037970 -0.127746 -0.023965 0.192695 0.157644 
item_302 -0.166445 0.349463 -0.388862 0.027163 0.292288 -0.138150 0.037356 -0.215124 0.072383 -0.313116 0.054370 0.406496 0.208645 0.006440 -0.056263 -0.171861 0.356771 0.181408 0.338048 0.030995 -0.127664 0.097833 -0.224910 -0.176617 0.035032 -0.134655 -0.226244 0.023557 0.132463 0.127804 -0.238023 -0.165339 -0.054380 0.236856 -0.248042 0.088783 -0.250111 -0.063558 0.382190 0.080495 -0.153689 0.233728 -0.181647 -0.063581 -0.089942 -0.360025 0.205327 0.290521 -0.052208 -0.019493 -0.367906 -0.152539 0.087389 0.265943 0.043430 -0.288371 0.065233 0.054063 -0.373047 -0.133236 0.008852 -0.011420 0.005817 0.039587 0.053251 0.091954 0.110132 0.118751 0.321824 0.318633 0.294106 -0.188124 -0.028362 0.034334 -0.122547 0.091872 0.221555 -0.268140 0.262164 0.219381 0.063312 -0.069923 -0.589747 0.522788 0.152058 0.264783 -0.243698 0.111864 -0.300061 -0.274847 -0.269830 -0.056853 0.170977 -0.029686 -0.112349 0.131612 0.415945 0.448101 -0.393655 -0.032145 0.122843 0.116126 0.080482 -0.193159 0.238432 -0.065911 0.212268 -0.310264 -0.001623 -0.224328 -0.092319 0.537031 -0.091358 0.120043 0.266243 -0.030853 0.049606 0.706203 0.192837 0.049108 -0.013938 -0.309683 0.133008 -0.078545 -0.174845 0.187245 0.523170 0.126126 
item_69 0.168419 -0.116587 -0.290630 0.116934 -0.009052 0.012843 0.183745 -0.030417 0.132363 -0.143611 -0.036329 -0.402246 -0.054528 0.014393 0.223637 -0.021213 -0.002347 0.095550 -0.006950 -0.267360 -0.251075 0.230850 -0.182568 0.322342 -0.211470 0.056684 -0.016927 0.020167 0.446363 0.401366 -0.162100 -0.333517 -0.096236 0.027813 -0.158569 -0.189518 -0.139524 -0.140052 -0.116665 -0.005827 0.190664 -0.256936 -0.050855 0.022817 0.088381 0.016750 -0.239374 -0.381100 -0.222613 -0.383979 0.005001 0.018518 -0.051828 0.107012 -0.000091 0.215305 -0.209954 -0.149358 -0.055056 0.439298 0.041185 -0.357071 0.074357 0.126900 0.173718 -0.148293 0.048263 -0.053605 0.083370 -0.091612 0.399406 -0.096200 0.073968 -0.144174 -0.104147 -0.165925 0.025159 -0.016651 0.004807 -0.293253 0.039381 0.171979 -0.730970 -0.230814 -0.167325 -0.075564 0.004021 0.157359 -0.024291 0.257336 0.152395 0.211643 -0.056439 -0.049484 -0.009052 -0.217506 0.037792 0.317215 0.295479 0.263958 -0.222708 0.227574 -0.068150 -0.125656 0.263199 0.011404 0.026324 0.055621 -0.255609 -0.141711 0.021318 0.127596 -0.261811 0.060454 0.129861 0.380489 0.033832 -0.422319 0.387051 0.207303 -0.275989 0.128334 -0.240110 -0.066994 -0.049174 -0.007080 0.292470 -0.128813 
item_195 0.276353 -0.610379 0.047156 0.279168 0.163077 0.019135 0.032534 -0.283944 0.505139 -0.221675 -0.315187 0.017671 0.308090 -0.170102 0.032319 -0.301459 -0.247090 0.027805 0.013917 -0.219781 0.182030 -0.007612 -0.132329 0.039553 -0.108977 -0.039515 0.095429 -0.107747 -0.410005 -0.036641 0.289459 0.164796 -0.153546 -0.131682 0.015965 -0.365698 -0.249863 -0.307953 -0.323977 -0.019750 -0.141558 0.077392 -0.211962 0.213311 -0.162206 0.188951 -0.010029 -0.219624 -0.141782 0.233144 0.051588 -0.160649 -0.418997 -0.054316 0.100745 -0.122087 -0.003155 -0.314345 -0.304281 -0.178525 -0.071808 0.051736 0.151436 0.025730 0.132788 0.162932 0.099534 -0.256100 0.292387 -0.276107 0.202318 -0.478147 -0.131350 -0.015359 0.280426 -0.202581 0.094561 -0.076774 0.240634 -0.111308 -0.299889 -0.115502 -0.771843 0.136690 -0.216117 0.030361 0.028830 -0.023150 -0.056513 0.153433 -0.015368 -0.206654 -0.030223 -0.061807 0.093069 0.077449 0.235717 0.079258 0.147351 0.120678 0.216425 0.353625 0.190763 -0.113649 0.184023 -0.383682 -0.211465 -0.131969 0.271442 0.143881 -0.067766 -0.369651 -0.054306 -0.285175 0.128535 0.201370 0.254652 0.146684 -0.000857 -0.187484 0.169404 0.233972 -0.191268 0.108605 0.084587 0.128731 0.270618 0.289612 
item_22 -0.092308 0.085650 -0.013645 -0.081200 -0.069637 0.268487 0.444622 -0.409051 -0.208619 -0.031301 -0.097867 -0.145886 0.352687 -0.045599 0.178839 0.411605 0.335194 0.230865 -0.043106 0.246068 -0.197938 0.235625 -0.154799 -0.280594 0.089356 -0.041815 -0.360436 -0.364854 -0.312165 -0.093276 -0.051368 -0.168804 0.059912 0.151707 0.083051 0.008702 -0.314907 -0.111953 -0.068808 -0.096972 -0.058451 0.088031 -0.105094 0.307890 -0.026632 0.025809 -0.082543 0.039529 0.175115 0.188795 -0.032202 0.185972 -0.334949 0.119142 0.032698 0.123388 -0.051092 0.413785 -0.108369 0.071513 0.386604 0.204866 0.154682 0.311370 -0.052892 0.161899 0.099450 -0.231379 0.416707 -0.010412 0.022630 -0.171342 -0.317227 0.062617 -0.423202 -0.374694 -0.333947 0.166323 -0.128628 -0.108546 0.150135 0.273780 -0.751419 -0.527107 -0.114956 -0.075296 -0.123716 -0.169966 -0.199340 0.011905 -0.075050 0.147154 -0.083178 0.289820 -0.095075 -0.255361 0.248301 0.273411 0.267865 -0.178626 0.294266 -0.301851 0.280838 0.008968 0.160586 0.141260 -0.105087 -0.089565 -0.081506 -0.007304 0.118588 -0.301319 -0.010163 0.262586 -0.038437 0.168336 -0.159978 -0.016361 -0.184663 0.054009 0.054614 0.037672 0.234050 0.093411 -0.202319 -0.159990 0.030544 -0.187911 
item_405 -0.008576 -0.041135 -0.054148 0.527401 -0.176090 0.113911 0.009480 -0.196178 0.165461 0.056757 -0.046860 -0.404360 0.199770 0.267418 -0.285427 0.253638 0.078036 -0.134387 -0.134661 0.167350 -0.529228 0.068387 0.033833 0.039015 -0.694974 0.098811 -0.062158 0.117644 0.174922 0.021146 0.078074 0.260951 -0.081117 -0.019326 0.045446 -0.334231 0.082270 -0.013477 0.169071 -0.227960 -0.242227 -0.221157 0.066063 0.170136 0.160104 0.119981 -0.126316 -0.292008 -0.187114 0.148753 0.030734 0.065954 0.222081 0.163911 0.108508 0.087034 -0.079163 -0.018093 0.046013 -0.004013 -0.026800 0.242884 -0.077152 0.002513 0.057426 0.208435 -0.096255 0.091871 0.484765 0.094855 0.301710 0.061805 0.136013 0.002769 0.216563 -0.124600 0.229858 -0.207157 0.122991 0.105497 -0.375620 0.218273 -0.500866 -0.128255 0.265908 -0.013338 -0.312692 -0.077340 0.843504 -0.236007 0.150629 -0.384231 -0.028351 -0.160475 0.457143 -0.114070 0.225355 0.006729 0.250672 -0.567124 0.395292 0.044577 -0.042901 -0.206142 0.090757 0.054173 0.308952 -0.173568 0.006435 0.272340 0.236227 -0.463462 -0.066192 -0.125708 -0.178001 0.250731 0.390596 0.125322 0.044911 -0.030232 -0.112975 0.239118 0.336557 0.005963 -0.033878 -0.186522 0.148425 -0.304636 
item_64 -0.072825 -0.025149 0.139561 -0.037213 -0.111398 0.525369 -0.031384 -0.166683 0.107435 -0.059016 -0.249665 0.022560 0.114871 0.085457 0.018659 0.145596 0.141546 0.026520 0.094405 -0.009061 -0.070549 0.045524 -0.386049 -0.054724 -0.076425 -0.074448 -0.247032 0.175008 -0.025991 0.025733 -0.214615 0.264971 -0.250972 -0.429509 0.008289 -0.219707 -0.212392 -0.391051 0.072610 0.052444 -0.058305 -0.149959 -0.246355 0.164946 0.252661 0.031146 0.026774 -0.062458 0.074439 0.022422 0.258638 -0.000235 -0.172104 -0.080046 0.026066 -0.073075 -0.013425 0.216560 -0.153284 -0.496773 -0.277191 0.284932 -0.132219 -0.179411 0.290008 0.380183 -0.065638 -0.002335 0.290962 -0.146990 0.052599 -0.201188 -0.212978 0.150633 -0.185150 -0.071638 0.227508 0.281752 0.077237 0.221865 0.252964 -0.192832 -0.612874 0.070677 0.273153 0.159421 -0.090433 0.177521 0.073408 -0.278096 0.078042 0.346183 0.097605 -0.356268 0.216469 -0.107419 0.032998 0.003081 0.252703 -0.073281 0.295209 0.131634 0.427364 0.096441 -0.063520 -0.020813 0.561421 0.201448 -0.310402 -0.288416 -0.297860 -0.186498 0.042934 -0.016410 0.477917 0.203552 0.013733 0.004517 0.145703 0.126030 0.326479 -0.111727 -0.127298 -0.018808 0.002204 0.509022 0.087961 -0.050971 
item_151 -0.223499 -0.029356 -0.143459 0.233767 0.014641 -0.021013 -0.210466 -0.259043 -0.053826 0.357466 -0.033445 -0.451615 -0.012940 0.171855 0.123143 0.207058 0.050107 -0.045718 0.127481 -0.002479 -0.288517 -0.013462 -0.124171 -0.313606 -0.454744 0.168289 -0.090804 -0.071803 0.375455 -0.129102 0.314391 0.379049 0.035264 -0.077353 -0.289324 0.168577 -0.126638 0.031944 -0.002434 0.122056 -0.008000 -0.200165 -0.204037 -0.073622 0.123258 0.473186 -0.046174 0.170846 0.047663 0.040977 -0.242328 0.198554 -0.188603 0.024168 0.032861 0.228745 0.210546 -0.070936 -0.327942 -0.062337 0.168973 0.017472 0.142346 -0.155997 -0.082105 -0.216595 -0.124985 -0.296993 0.416206 -0.039086 -0.059278 0.231263 -0.117107 -0.312544 0.072612 0.055793 0.484017 0.139358 -0.338721 0.364349 0.094413 0.338970 -0.421824 -0.431002 -0.283995 0.451425 0.343861 0.136945 0.110972 0.135408 -0.054359 -0.066657 -0.328146 -0.088803 0.052709 0.176255 0.469549 0.007292 0.086980 -0.316086 0.085059 0.297754 0.026179 -0.120044 0.348701 0.132948 0.267698 0.039926 -0.220457 -0.167823 -0.148169 -0.219200 -0.148361 0.385926 -0.127055 0.101093 0.092504 0.245252 0.254270 -0.140684 0.143673 -0.108020 -0.124570 -0.049914 0.111936 -0.105425 0.073209 -0.191728 
item_183 0.067855 0.175472 -0.146771 -0.223429 0.009636 -0.182124 -0.343701 -0.491158 -0.007471 -0.264175 0.125956 -0.171912 0.341146 -0.136927 -0.028457 -0.024228 0.240156 0.101670 0.095806 0.259380 -0.214656 -0.165499 0.159747 -0.095678 -0.059792 -0.304608 0.231401 -0.069268 0.000307 0.128543 -0.267788 -0.164318 0.077849 -0.315828 -0.105178 -0.064809 0.094232 0.003960 -0.028489 0.227571 -0.023790 -0.244883 -0.046807 0.099183 0.395425 -0.152105 0.254566 -0.258912 0.123355 -0.185132 0.084765 0.032930 -0.082911 -0.190668 -0.083406 0.120495 0.074373 -0.113723 -0.258547 -0.232928 0.160988 -0.129225 0.089153 -0.286223 0.218770 0.050032 0.231552 0.220814 0.005408 0.114293 0.150073 -0.431910 -0.232294 0.132580 0.295326 -0.247290 -0.056139 0.169294 0.057328 0.076401 -0.084665 0.243938 -0.556193 -0.294583 -0.059844 -0.035514 0.077489 0.082347 -0.111189 -0.087176 -0.097560 0.193742 -0.148237 -0.245120 -0.060789 -0.201614 0.307808 0.110254 0.295732 -0.133503 0.158216 -0.064948 0.154817 -0.137526 0.434283 -0.313200 -0.047713 0.155651 0.024426 0.054266 0.235053 0.013325 -0.088820 -0.147214 0.149889 0.142131 -0.174735 -0.148493 -0.084014 0.104646 -0.247507 -0.139487 -0.454133 0.113664 -0.020853 -0.001659 0.033096 -0.292669 
item_257 0.066905 0.120876 0.064075 0.043982 0.625340 0.196339 -0.410741 -0.160204 -0.151473 0.118912 0.081245 -0.649020 0.255844 -0.168163 -0.205722 0.022907 -0.074355 0.225457 0.025149 0.401783 -0.398101 0.357859 -0.343933 -0.291260 0.018529 -0.184275 0.099851 0.022441 -0.226348 0.014033 -0.109701 -0.090749 0.080244 0.060521 0.277716 -0.373046 0.050264 -0.228617 0.267306 -0.057262 -0.005799 0.294825 0.169368 0.074181 -0.085725 0.006196 -0.263525 0.109612 0.173346 -0.128473 -0.299241 -0.237301 0.122483 0.200423 -0.341664 -0.003170 0.293681 0.148856 0.283057 -0.254949 0.099916 -0.047755 0.026697 0.283285 -0.275641 0.091618 0.139489 -0.125851 -0.023499 -0.103735 -0.064728 0.095727 0.172060 -0.169348 -0.030297 -0.036311 0.239791 -0.137778 -0.029369 -0.075631 -0.030378 -0.087563 -0.664794 -0.236657 0.144553 0.494475 -0.019639 0.287770 0.358907 0.081093 0.001669 0.045442 0.238666 0.003039 0.144863 0.138866 -0.200444 0.110247 -0.037474 -0.102842 -0.055127 0.125633 0.073926 0.031339 -0.208537 -0.278199 -0.005532 -0.046706 0.284124 -0.052533 -0.001284 -0.140912 0.301645 0.557530 -0.135962 0.434657 -0.328111 0.230072 0.158191 -0.140148 0.092463 0.371583 -0.148710 -0.199854 -0.253257 -0.039846 0.523992 -0.057449 
item_216 0.084123 -0.141035 -0.070169 -0.061002 -0.170402 -0.067529 -0.165800 -0.391004 -0.198764 0.022281 -0.149264 -0.445239 -0.020335 -0.112083 -0.006391 -0.107635 0.220491 0.239645 0.111878 -0.118897 -0.024858 -0.022813 -0.336097 0.242340 0.333547 0.304301 0.301900 -0.121232 -0.098162 -0.043603 -0.127300 0.269571 0.245544 0.138689 -0.115118 -0.006884 -0.022441 0.156670 0.092529 -0.096606 0.010776 0.121860 0.260030 -0.045554 -0.032671 0.093751 0.170933 0.013722 0.103430 0.277330 0.143659 -0.110971 -0.168162 -0.046786 -0.414112 -0.058541 -0.055196 0.199922 -0.280527 -0.214609 -0.338674 -0.134554 0.333291 0.086109 -0.013673 0.101817 0.170613 -0.132564 -0.061776 -0.192334 -0.323293 -0.228865 -0.116774 0.066395 -0.129740 -0.401825 -0.010546 0.098322 -0.097727 0.080957 -0.118182 -0.183329 -0.852822 0.108140 -0.168899 -0.122571 0.237429 -0.093794 0.046661 -0.161773 0.010572 0.115212 0.081034 -0.175839 0.030902 -0.247863 0.163216 0.097368 -0.067834 -0.145744 -0.099299 0.105115 -0.414190 -0.410036 -0.020589 -0.168599 -0.070530 0.469834 0.241991 -0.053049 -0.023396 0.031004 -0.324478 -0.076535 -0.115227 0.096566 0.138610 -0.147167 0.506466 0.129667 0.338549 0.268930 -0.139139 0.086914 0.078457 0.141688 -0.093278 -0.180682 
item_9 -0.049222 -0.009425 -0.033007 0.288304 -0.022001 -0.057617 -0.298031 -0.319783 0.536553 0.135218 0.195163 -0.242883 0.412293 -0.097001 -0.245961 -0.148964 0.402574 0.286999 0.155577 -0.050230 -0.075899 0.179857 -0.099522 0.170280 0.021826 0.018132 -0.090107 0.110180 0.048529 -0.000421 -0.077107 0.331878 0.000284 -0.177862 0.416661 0.167597 -0.092789 0.101687 0.328008 -0.026298 0.184727 0.358081 0.333939 -0.072021 -0.290981 -0.115134 0.028701 -0.186900 -0.173975 -0.002184 -0.106461 -0.074174 0.124026 -0.115467 -0.065491 0.040492 0.015738 0.076105 -0.424397 0.009801 -0.060581 -0.074812 0.132978 -0.160964 -0.044550 -0.219180 -0.308132 -0.012533 0.025254 -0.045144 0.090208 0.188927 -0.328217 0.517520 -0.044654 -0.010586 0.368180 0.135522 -0.068679 0.212893 -0.246069 0.057112 -0.535997 0.178932 -0.099440 0.150253 0.051648 0.013228 0.254249 0.141610 0.161993 0.343587 -0.183813 -0.398220 0.014913 0.390977 -0.060691 0.087547 -0.005092 -0.250607 0.025357 0.583756 0.240409 0.256660 -0.106203 -0.242828 0.496386 0.076247 0.191381 -0.162933 0.089275 -0.307676 -0.104371 0.206774 -0.071319 -0.247225 -0.239769 0.067719 -0.115324 -0.360852 0.067441 -0.254172 0.516097 0.336709 0.209537 -0.249769 0.419772 -0.206103 
item_96 -0.244125 -0.278850 0.010925 -0.091205 -0.003738 -0.048827 0.009607 0.032304 0.083741 -0.215934 -0.374157 -0.261539 0.246123 -0.340252 -0.055349 -0.031933 -0.074739 0.066245 0.040819 0.489211 -0.615836 0.546257 -0.047554 0.272721 0.012361 -0.208743 -0.089440 -0.083272 0.168349 -0.252585 -0.005985 0.502774 -0.205886 0.080669 -0.110938 -0.067061 -0.031368 -0.548860 -0.023861 0.341324 0.135917 -0.035283 -0.031361 -0.151313 0.040884 -0.228348 -0.039827 -0.076092 -0.117860 0.116420 -0.261157 -0.097562 -0.208553 -0.104071 0.710041 -0.689906 0.069228 0.180592 0.123321 0.014613 0.116294 0.360671 0.105476 -0.018437 -0.020119 -0.017184 0.518426 0.053710 0.080894 -0.072506 -0.207528 0.013190 -0.076502 -0.117437 0.206433 0.100834 -0.112967 -0.001829 -0.290872 -0.063797 0.004857 0.103452 -0.809041 -0.084133 -0.068529 -0.147894 0.319764 -0.266196 0.003313 0.208828 0.287182 0.212806 -0.012191 -0.323692 0.020222 -0.162433 -0.298067 -0.066612 0.174732 -0.256688 -0.334521 -0.021627 0.023308 0.215280 0.553428 0.078752 0.022764 -0.016862 -0.264298 -0.125892 -0.154123 -0.002459 0.094663 0.085013 -0.121085 0.257719 -0.210524 0.102181 -0.005503 -0.036970 0.080406 -0.032268 -0.236978 0.112830 -0.107668 -0.149985 0.009221 0.027492 
item_191 0.070838 0.159304 -0.105596 -0.165423 -0.048585 0.045086 0.045653 0.160789 -0.077909 0.054441 0.182057 0.077107 -0.310574 -0.136346 0.195138 -0.042398 0.085783 0.127820 0.272510 -0.035579 0.098750 -0.215585 0.109193 -0.100645 -0.254245 0.001032 -0.024380 0.226876 -0.220161 -0.037947 0.015620 -0.102379 -0.194120 -0.039111 -0.249563 0.025818 -0.261204 0.009732 0.087430 -0.091209 0.102033 0.078429 -0.126293 0.194640 0.346417 0.339321 -0.005090 0.118489 -0.083427 -0.135866 -0.300023 -0.114456 -0.248414 -0.285496 0.100959 0.317947 0.234278 0.293638 -0.234439 -0.291763 -0.124200 0.102845 0.107784 0.151034 -0.197266 0.010571 0.176191 0.059609 0.075844 0.143350 -0.181165 0.049866 -0.035782 0.087331 0.117490 0.297625 0.117410 -0.122365 0.097882 -0.119495 0.051023 -0.090630 -0.790888 -0.028258 -0.081888 0.280833 0.328770 -0.101380 0.093987 -0.080296 -0.224448 0.024111 0.031008 0.278553 -0.226762 0.013830 -0.022439 -0.112265 0.226655 -0.150600 0.240794 0.121871 -0.211987 -0.166838 -0.045313 -0.077222 0.150402 0.097345 -0.103107 0.052460 -0.139862 0.083432 -0.059608 0.087385 0.055931 0.088522 -0.070824 0.116696 0.072792 -0.190709 0.092138 -0.161061 0.032661 0.110237 -0.246438 -0.050332 0.169242 0.055093 
item_15 -0.060680 0.143369 -0.353544 -0.053315 0.037740 -0.015338 0.337763 -0.214106 0.074813 -0.346151 0.162528 -0.268224 0.258370 -0.033555 -0.271512 -0.009077 -0.179401 0.210304 0.306249 0.007445 -0.122012 0.071847 -0.374438 -0.128875 -0.271274 0.199745 0.028662 -0.096154 0.049724 0.183338 -0.088769 0.192803 -0.087074 -0.060623 0.084351 -0.114862 0.327456 0.177328 0.021104 0.304342 0.107671 -0.190058 0.290034 -0.196415 0.216392 0.021645 0.104806 0.077963 0.011739 -0.042204 0.240571 -0.241027 -0.000231 -0.084968 -0.083025 0.535007 -0.108525 -0.236320 -0.178819 -0.140447 -0.181667 0.280493 0.059019 -0.114754 -0.380920 0.183555 -0.058965 -0.469223 -0.173783 0.002454 0.201750 0.122225 -0.114449 0.159898 -0.139818 -0.187411 0.249233 0.221368 0.184721 0.307319 -0.287227 0.075483 -0.564944 0.276725 -0.082909 0.107488 -0.160740 0.210692 0.398181 -0.033360 -0.084676 -0.006802 -0.161271 0.000964 0.126030 0.193421 -0.191967 0.089202 -0.090236 -0.083574 0.014862 0.104756 0.116656 -0.164299 -0.154675 0.686506 0.428580 0.122489 -0.030307 -0.139912 0.178251 -0.045535 -0.148743 0.172191 -0.111325 -0.079704 -0.032226 0.300528 0.083442 -0.234506 0.004202 0.190109 -0.122309 -0.116373 0.092239 -0.201775 0.209683 -0.255697 
item_423 -0.067486 0.065458 0.192083 -0.139442 -0.160263 0.049725 -0.124280 -0.366887 0.215691 0.271516 -0.272770 -0.073222 0.006514 0.032209 -0.104785 -0.168020 -0.365468 -0.203468 0.155898 0.387235 0.160289 0.021873 -0.406436 -0.141487 0.036985 0.013857 0.152867 0.394555 0.399184 0.096276 -0.095212 -0.026561 -0.311715 0.185335 -0.195831 -0.131046 0.098616 -0.069679 -0.245227 0.019173 -0.020443 0.067504 0.227667 -0.054361 0.312440 -0.243193 0.053977 -0.102929 0.052246 0.015066 0.018778 0.151307 -0.035512 -0.051502 -0.103586 0.156747 0.269901 0.015982 0.158662 -0.157579 0.088708 -0.010369 0.562249 -0.323433 0.350674 0.023922 -0.163802 -0.173877 -0.135769 -0.325199 -0.065530 -0.049619 0.069502 -0.013313 0.183562 -0.139412 0.011652 0.079221 0.119181 0.008902 -0.123907 -0.011659 -0.802944 0.281048 -0.128353 0.066372 0.309334 -0.172298 -0.081367 -0.313383 -0.211566 0.195213 -0.118067 -0.276948 0.313419 0.024187 -0.151974 -0.143925 -0.289960 -0.057156 0.081439 -0.081495 0.216919 0.175901 0.240585 -0.126476 0.082506 0.389224 0.311363 -0.049514 -0.156108 -0.356098 0.048362 -0.063644 0.047378 -0.133600 -0.097284 0.099968 0.154190 -0.234021 0.172355 0.185038 0.142830 0.162772 -0.163241 0.373455 0.338397 -0.175292 
item_28 0.047184 0.281615 -0.136439 0.122187 -0.159854 -0.225678 0.281226 -0.451906 0.111470 -0.169453 0.007034 -0.067720 -0.360989 0.033105 -0.128754 0.012067 0.124832 -0.070341 -0.051204 -0.030558 0.195156 0.130479 -0.156208 0.113140 0.088778 -0.012892 -0.035658 0.232064 -0.402952 -0.270067 -0.365938 -0.036358 -0.151084 -0.309534 -0.090378 0.049652 -0.045178 -0.013553 0.433256 0.083349 -0.070837 -0.193942 -0.309633 -0.185414 0.178326 -0.291991 -0.231439 0.096458 -0.460953 0.137497 -0.135069 0.011244 -0.224724 -0.145070 -0.196852 -0.168486 -0.206590 0.169764 0.099882 -0.056034 0.245821 -0.108063 0.240041 -0.134221 0.074873 0.020506 -0.512039 0.222122 0.186879 -0.280757 0.203282 0.049996 -0.068531 -0.041272 -0.012966 -0.384596 -0.206916 -0.373649 0.159954 -0.046437 0.257498 0.049506 -0.713130 -0.623054 -0.331545 -0.088386 0.333076 -0.300837 0.065902 -0.360807 0.535715 -0.194879 -0.059568 -0.095346 0.166146 0.050017 -0.118664 -0.084910 -0.122896 -0.003410 0.074956 0.111092 -0.026599 -0.535545 -0.098629 0.160100 0.230897 0.208090 0.133862 0.101510 0.041324 -0.128404 0.113127 -0.017713 -0.052823 -0.002128 0.038822 -0.098304 0.116187 0.115071 0.136986 -0.490317 0.156733 -0.070749 -0.055834 0.062303 0.258100 -0.054498 
item_176 -0.361705 -0.150812 0.051281 0.108661 -0.386409 -0.043901 0.390125 -0.284810 -0.079917 0.068456 0.228633 -0.190279 0.092799 -0.316316 0.252627 -0.393828 -0.109731 0.198985 0.180005 -0.088196 0.278012 -0.162682 0.042529 -0.083962 -0.063235 -0.510541 0.209074 -0.097013 0.049302 0.160855 -0.083486 -0.250884 0.093855 -0.381701 -0.248870 -0.417768 -0.262213 -0.000165 -0.304234 0.123181 -0.210613 -0.081458 0.065384 0.063757 -0.000206 -0.041227 -0.053757 -0.258673 -0.111713 0.265408 -0.194929 0.060632 -0.381921 -0.203062 -0.158199 0.203694 -0.124173 -0.130088 0.194926 0.035733 0.207506 -0.044970 0.036571 0.349211 -0.109751 0.420001 0.271899 0.160684 0.151604 0.504894 -0.012664 -0.430745 0.020870 0.045913 0.154631 -0.180771 0.015686 -0.080590 0.253430 0.205682 -0.088631 0.218696 -0.515639 -0.264484 0.017532 0.023607 -0.035071 -0.180666 0.236981 0.252090 0.052640 0.117682 -0.094496 -0.122255 0.306287 -0.321956 0.143565 -0.308791 0.072146 -0.255452 -0.100329 0.018350 -0.192182 -0.124486 0.151822 0.087975 0.080264 0.291986 0.207726 -0.010505 0.250894 -0.316193 0.145775 0.075735 -0.013407 0.089667 0.076513 -0.038093 0.029950 -0.024377 0.004445 -0.108574 -0.030167 -0.157009 0.057462 -0.147070 0.398986 -0.029630 
item_89 -0.239968 0.281323 -0.133803 0.385951 0.165196 -0.153793 0.179061 -0.220634 -0.137731 -0.287549 -0.220113 0.215833 0.221712 -0.249999 0.162383 -0.294534 -0.028844 -0.011225 0.080390 -0.055760 -0.251587 0.018676 -0.391967 0.269365 0.102021 0.247382 0.002675 0.034761 -0.382834 -0.031021 -0.181820 -0.246075 0.063684 -0.041973 -0.286170 -0.305627 0.103509 -0.138089 0.058300 0.497729 -0.286078 0.176407 -0.149335 0.082462 -0.003487 -0.099309 0.301569 0.054735 0.193303 0.069326 -0.041236 -0.211003 -0.182580 -0.260927 -0.079443 0.050537 -0.027619 0.056131 -0.270687 0.263836 0.229084 -0.016992 -0.241771 0.000845 -0.114424 -0.128831 -0.247285 -0.105338 0.130908 0.118249 -0.191620 -0.541951 -0.081115 -0.166362 -0.127244 -0.168860 -0.089825 -0.342242 -0.076121 0.020077 0.326510 0.033703 -0.684987 -0.022729 0.017730 -0.195220 -0.096838 -0.413583 0.267989 -0.331811 0.063803 0.268047 0.016065 0.249964 0.047897 0.142625 0.168127 -0.126946 0.247691 0.162760 0.027951 0.077639 0.283081 -0.318053 0.045361 -0.144482 0.027416 0.411516 0.032400 -0.272918 0.194526 -0.126459 -0.217859 -0.207788 0.101461 -0.048842 0.023506 -0.008560 0.158602 -0.302635 -0.324023 0.042537 0.004503 -0.197293 -0.321733 0.260977 0.080832 0.218896 
item_12 0.010566 -0.406702 0.236529 -0.004859 -0.107509 0.345000 0.252334 -0.310669 0.057477 0.198154 -0.168552 -0.102458 -0.120679 -0.092797 0.138686 0.011634 0.277231 -0.160208 0.024147 0.083077 -0.440414 0.006082 -0.147525 -0.028668 -0.217457 0.069475 -0.035945 -0.211292 0.076439 -0.081277 0.212905 0.140626 0.113755 0.304670 -0.151854 0.188584 -0.389923 0.081543 -0.259075 0.138788 -0.223414 -0.223154 -0.127106 0.501770 0.113379 0.366134 -0.011540 -0.197041 -0.055704 -0.086401 -0.128215 0.336848 -0.161232 -0.120573 -0.028243 0.186464 -0.131775 0.059102 -0.634820 -0.102535 0.130073 -0.269052 0.261256 0.019154 0.276836 -0.001869 -0.224960 0.214511 -0.081726 0.200889 -0.102680 -0.016404 0.134931 0.121367 -0.044220 -0.333102 0.182288 -0.281589 -0.079434 -0.361087 -0.066757 0.108689 -0.845559 -0.011125 0.013701 -0.229954 -0.004443 -0.197457 -0.026056 0.082522 -0.184830 -0.339414 0.024782 -0.019803 -0.039968 0.094489 0.045346 -0.051726 0.053889 -0.205409 0.260982 0.007871 -0.039455 -0.172684 -0.137904 -0.055227 0.255681 -0.051721 0.027017 0.140308 -0.104889 -0.061235 -0.083238 -0.343517 -0.265150 -0.105998 -0.029544 0.141190 0.019251 -0.275773 -0.065360 0.169672 -0.303678 -0.153492 0.116306 -0.029429 0.067018 -0.035460 
item_202 0.211211 0.219349 0.027567 -0.162115 -0.019326 -0.167343 0.004378 -0.402830 0.146409 0.234812 -0.191963 -0.006085 0.262344 -0.123966 -0.090569 -0.003556 0.193412 -0.215467 0.272291 -0.262709 -0.013319 0.096644 -0.339205 0.159827 -0.169192 0.241662 0.071180 0.090745 -0.304157 0.386172 -0.053635 -0.231786 0.193551 -0.107451 -0.148849 0.011588 0.261248 -0.046490 -0.008910 0.090870 0.098083 -0.130702 -0.036233 -0.240797 0.229208 -0.040429 -0.029827 0.054365 -0.412567 0.257365 -0.335780 0.212206 0.171789 -0.142718 -0.131703 0.294449 -0.188355 -0.076444 0.101708 0.002596 0.169008 -0.163834 -0.147566 -0.086346 0.484868 0.468445 0.151891 -0.279117 -0.081738 0.065502 0.410312 -0.091421 -0.195882 0.148124 -0.191936 -0.151617 0.402677 0.000154 -0.286974 0.270378 -0.005852 0.122577 -0.595362 0.106335 -0.251800 0.065911 -0.371551 0.077082 0.031013 0.151210 0.350874 0.359187 -0.186973 -0.274416 -0.071169 0.096802 0.201517 -0.130948 0.027087 0.148001 -0.143317 -0.096798 -0.194730 -0.023540 0.279595 0.279984 -0.107852 0.189559 0.009703 -0.145138 -0.330308 0.113250 0.156218 0.119961 0.112997 0.039146 -0.044591 -0.044022 0.392302 0.133683 0.140173 -0.183001 0.075285 -0.254959 -0.305636 0.049465 0.359772 -0.142830 
item_234 0.001621 0.307302 0.028464 -0.002626 -0.212669 -0.092359 -0.017613 -0.098856 -0.258729 -0.084106 -0.255911 -0.023194 -0.227118 0.102647 0.030536 -0.123077 -0.230316 0.188765 0.275665 0.103773 0.058347 -0.253363 -0.043938 0.166023 -0.184332 -0.319982 0.156437 0.257456 0.020778 0.183336 0.009538 0.141899 0.101562 -0.101850 -0.215428 0.042278 -0.115846 -0.273103 0.149501 -0.181615 0.353425 0.234785 -0.036057 -0.142546 -0.078905 0.018681 0.097946 -0.195757 0.348619 -0.020164 0.231984 -0.036293 0.151361 0.204967 0.228422 0.170123 0.198868 0.240436 0.169291 -0.069258 0.066322 -0.053810 -0.125271 0.543458 -0.005404 -0.089411 -0.133199 -0.181390 0.394575 0.117999 0.456175 0.145027 -0.009934 0.092184 -0.111397 -0.237111 0.144231 0.086826 0.490223 -0.395382 0.256817 0.458305 -0.725607 -0.311819 0.035441 -0.138773 0.304301 -0.392864 0.188817 0.193203 0.113976 -0.155413 -0.019866 -0.029197 0.230269 0.152404 0.038533 -0.154289 -0.001647 -0.150258 0.004794 -0.078991 -0.237962 0.046037 0.043446 -0.065008 0.070335 0.383076 0.033828 -0.052358 -0.166048 -0.283004 -0.064770 0.293927 0.323083 0.028708 0.185302 0.153095 0.288166 -0.179979 0.229873 0.193266 0.058774 -0.013563 -0.099812 -0.286336 0.056111 -0.376966 
item_275 0.219222 0.468177 0.310785 0.197309 -0.189480 0.105805 -0.002919 0.091271 0.413102 -0.246610 0.218843 0.070340 0.612991 -0.017427 -0.062683 -0.273902 0.276242 -0.027603 -0.018677 -0.013617 0.171174 0.089657 0.253100 0.283602 0.159682 -0.035629 -0.214789 -0.344573 -0.072094 -0.095535 0.373943 0.052475 -0.040047 -0.027844 0.006060 -0.359688 0.176630 0.453180 -0.044871 -0.216031 0.122141 -0.430929 0.067777 -0.214193 0.308289 -0.199591 -0.046116 0.260649 -0.191442 -0.104608 0.508877 -0.068309 -0.099092 0.369972 -0.176879 0.159913 0.259287 0.200854 -0.619930 -0.219430 0.204882 0.201367 0.151422 -0.166746 -0.102153 0.021864 -0.076212 -0.001982 -0.186739 0.075582 -0.020319 0.042706 -0.007743 0.120421 0.117459 -0.416179 0.013151 0.013345 -0.056632 -0.101507 0.132438 -0.134001 -0.655807 0.005093 0.489734 0.144267 0.090457 0.073488 0.264408 -0.032235 -0.457180 -0.290864 -0.113199 0.224309 -0.357595 0.145485 0.029599 0.085317 -0.143532 -0.043142 0.123664 0.719357 0.230848 -0.136618 0.028254 -0.058690 0.132212 0.171264 -0.051841 0.099228 0.275691 0.000418 -0.234655 -0.144303 -0.148082 0.193532 -0.388310 -0.126112 0.152198 0.072817 0.003260 -0.082844 0.138788 -0.085223 -0.134581 0.189011 0.523512 -0.108690 
item_357 0.222363 0.068518 -0.172294 0.003221 -0.215933 0.203143 0.024931 -0.390633 -0.155473 0.139929 -0.064945 -0.069833 0.034879 0.027136 0.087626 -0.248720 0.260111 0.231890 0.052730 -0.347147 0.262631 0.127803 0.168478 0.002387 -0.138469 -0.151992 0.270943 -0.126661 0.099591 -0.006721 -0.077275 -0.091637 -0.124282 -0.321949 0.117792 -0.357866 0.041941 -0.100330 0.059814 0.216734 0.111917 0.115799 0.014281 -0.338343 -0.324240 0.144011 0.168789 -0.168567 0.278791 0.233065 0.236355 -0.108024 -0.066090 -0.330248 0.100777 -0.039299 0.284724 0.091211 -0.187295 -0.273308 0.312809 -0.153556 -0.127995 0.130096 0.130684 0.120934 0.029734 -0.258949 -0.217346 0.047237 -0.180523 0.226938 0.005971 -0.003506 0.086417 -0.258005 -0.202247 0.093516 0.239668 0.085558 0.220522 0.107121 -1.041204 -0.015818 0.081889 -0.131133 0.000505 -0.204092 0.314068 0.031832 0.144889 0.235449 0.053945 0.175561 -0.073152 -0.036024 0.235080 -0.112558 -0.019505 -0.108723 0.004858 -0.052514 0.065252 0.006815 0.220621 -0.083055 0.114198 -0.107642 -0.001076 0.070267 -0.137622 -0.118201 -0.071353 -0.202095 -0.207630 -0.400167 -0.134653 -0.296233 -0.087262 -0.330377 0.050519 0.293106 -0.077137 -0.364979 -0.130811 0.401748 -0.112964 0.088979 
item_276 -0.078385 0.061810 -0.211169 -0.085395 0.110619 0.143463 0.058186 -0.176731 0.047483 -0.410790 0.005641 -0.483467 0.169090 0.099353 -0.000641 0.258493 -0.176518 0.480787 0.127755 -0.169028 -0.096005 0.021520 -0.064618 -0.096260 -0.097526 0.052045 0.390877 0.062326 0.133371 -0.519826 0.098259 0.231223 0.103400 -0.124616 -0.187149 -0.319576 -0.051359 -0.065879 0.013921 0.102894 -0.353902 -0.145599 0.043514 0.087294 0.195839 -0.211815 0.358694 -0.333974 0.117963 -0.012995 -0.012533 -0.068206 -0.066062 0.321678 -0.113225 0.221578 -0.122270 -0.187367 -0.271218 0.044654 -0.151601 0.237939 -0.200253 -0.069250 -0.272312 0.092472 -0.302466 -0.152935 0.013620 -0.139973 0.239072 0.032871 -0.339965 0.260351 0.020976 -0.177835 0.208989 -0.251100 0.103261 0.235340 -0.029393 -0.187184 -0.396890 -0.049712 0.138954 0.257902 -0.113039 0.126175 0.330402 -0.431741 -0.149651 -0.187384 0.016793 -0.128375 0.129236 0.199919 0.027565 -0.018397 -0.104283 -0.172001 0.185760 0.266016 0.116154 -0.134124 0.037546 -0.135506 0.461937 0.005182 0.198467 -0.090508 0.253382 -0.070335 -0.161044 -0.283759 -0.037440 -0.111465 -0.124638 0.169775 0.244881 -0.106751 -0.147823 0.031599 -0.092802 0.296794 -0.013026 0.079581 0.118684 -0.082132 
item_328 -0.067190 0.427063 0.168835 -0.123198 0.026123 -0.210011 0.314294 -0.528160 0.112291 -0.110348 0.046105 -0.314323 0.289804 -0.079896 0.225585 -0.255375 0.366099 -0.004214 0.462707 -0.162257 -0.140549 0.503235 -0.016078 -0.127579 -0.228368 0.464845 0.108483 -0.150736 -0.029468 -0.375320 0.349344 -0.467922 -0.283261 0.118246 -0.105931 -0.108141 -0.387854 0.090791 0.001611 0.099540 -0.085270 -0.034300 0.219794 -0.269209 0.174056 -0.331434 -0.135068 0.184416 0.074277 -0.169889 -0.103409 0.134033 -0.088697 0.582108 -0.307487 -0.058606 -0.650657 -0.219170 0.057082 -0.159931 0.206330 0.496926 -0.131628 -0.167795 -0.026207 -0.223431 0.136889 0.509976 -0.028924 -0.182949 0.088104 -0.036015 0.703247 0.154566 0.462663 -0.170275 0.118242 0.457602 0.327060 0.141075 0.156638 0.304878 -0.486451 -0.185534 -0.054878 0.147841 -0.226044 0.041684 0.210377 0.099793 -0.048479 0.175048 -0.116923 -0.436246 0.051665 0.452554 0.418512 0.080395 -0.594325 -0.460223 -0.003440 0.042710 -0.028379 -0.188769 -0.337078 0.176367 0.055374 -0.662551 0.321800 -0.452811 0.277389 -0.119001 0.147790 0.218129 -0.118994 -0.147025 0.473758 0.332050 0.042257 -0.030327 0.054413 -0.177503 0.164944 -0.225420 0.069684 -0.124920 0.088465 -0.291479 
item_483 -0.069519 0.072923 0.041050 -0.138471 -0.086111 0.210837 0.022396 -0.076210 0.024124 -0.181452 0.243201 0.224578 0.090864 0.164720 0.170991 -0.160661 -0.035552 -0.190019 0.019951 -0.006460 0.151672 0.389311 -0.008267 0.161895 -0.151130 -0.117991 -0.071246 -0.101970 0.041723 0.074268 -0.069482 0.003617 0.089490 0.067930 -0.422214 0.293961 0.127826 0.049029 0.198561 -0.136624 0.122279 0.267322 0.096502 -0.017812 -0.065054 0.061643 -0.309853 0.124199 -0.063192 0.069627 0.044573 -0.246957 0.171926 -0.140184 -0.047680 -0.176746 0.109876 -0.333276 -0.089270 -0.354894 -0.112822 0.098698 0.209983 0.004122 0.352019 0.230302 -0.286550 -0.027269 -0.010527 -0.139944 0.168188 -0.137366 -0.145750 0.007078 0.134959 0.147413 0.074531 0.541782 0.117468 -0.165774 0.041531 -0.581160 -0.887363 -0.259664 -0.065405 -0.087202 0.092159 0.107024 0.124819 0.102692 0.250144 -0.027338 -0.240976 -0.219769 0.314604 -0.326622 0.360819 -0.196087 -0.074025 0.105514 0.141529 0.246158 -0.049420 -0.100831 -0.200958 -0.077320 0.159613 0.363042 0.067982 -0.202590 0.244667 -0.089686 0.279043 0.243584 0.142204 0.149996 -0.275745 -0.110335 0.141502 0.032452 -0.053483 0.366951 -0.067403 -0.087459 -0.495534 0.045298 0.183818 -0.250567 
item_111 0.007572 -0.192310 0.204398 0.067505 0.140859 -0.283392 -0.258016 -0.010991 -0.256498 -0.370223 0.275763 -0.476750 0.169367 0.104315 -0.213498 -0.144203 -0.007202 0.359157 0.118388 -0.235903 0.102594 0.029441 -0.345731 0.026973 -0.530046 0.026250 -0.050271 -0.082230 -0.206302 0.204431 0.052355 0.247357 -0.117541 0.021751 0.008092 -0.310023 0.135467 -0.333787 -0.160105 -0.058608 0.159339 0.028045 0.189752 -0.208870 0.331039 0.066491 -0.326576 0.024345 -0.040208 -0.149853 -0.029751 -0.186618 -0.126375 -0.203394 -0.223921 -0.182725 0.034532 -0.071750 -0.093043 0.468093 -0.022195 0.077240 -0.215296 0.216898 0.057401 -0.179069 -0.114350 0.103400 0.109245 -0.191241 -0.016721 -0.039227 0.114189 0.272370 -0.347548 0.007762 0.557199 -0.284886 -0.437071 0.041411 -0.345390 -0.247698 -0.678071 0.278104 -0.155361 0.160325 -0.061107 -0.096977 0.390312 0.276900 -0.250491 0.271135 0.064281 0.260349 -0.151571 -0.088504 -0.041718 -0.076394 -0.396180 -0.227382 0.266937 0.691898 0.205674 0.021016 -0.134466 0.360793 0.118906 -0.226641 -0.031100 -0.465380 0.142490 -0.187477 0.152210 0.092166 -0.539579 -0.068996 0.011483 0.037653 0.014003 0.173814 0.125983 -0.042155 0.120522 -0.121887 0.031412 -0.241158 -0.022713 -0.058555 
item_742 -0.154123 -0.070214 0.189177 0.030955 0.164036 -0.020975 -0.253419 -0.274162 -0.596664 0.031835 0.077727 -0.263670 0.098211 0.264044 -0.310187 -0.076987 -0.200232 0.245296 -0.092772 -0.069786 -0.040647 0.132043 0.072708 0.010807 -0.343092 -0.014434 0.321682 -0.028267 -0.283962 0.013482 -0.066609 0.327457 -0.189476 -0.019142 -0.331573 0.172018 0.314096 0.253654 0.332721 0.433110 -0.283277 0.174432 -0.261542 0.040292 0.091401 -0.101327 -0.023364 0.398861 0.247262 -0.082190 -0.159765 0.060346 -0.303940 0.318247 -0.221607 -0.173768 -0.415626 0.222319 0.219570 -0.165733 0.451003 0.011654 0.131931 -0.285703 -0.347302 0.048031 0.079417 0.444559 0.045337 -0.094124 0.029360 -0.353034 0.081848 0.701921 -0.084309 0.020884 0.213698 0.189699 -0.007883 0.222647 0.076029 -0.053990 -0.569421 0.105109 0.350070 0.150857 -0.490319 -0.152389 0.394407 0.035923 0.133323 -0.072709 0.091427 -0.012875 -0.306662 -0.097422 0.094640 0.141128 0.091531 -0.452086 0.303881 0.224392 0.176422 -0.085016 -0.379145 0.564247 0.019357 -0.085527 0.105049 -0.325156 -0.313603 -0.026047 -0.034551 -0.079024 -0.023553 0.412869 0.267018 0.258491 0.237843 -0.010707 -0.332445 -0.462429 0.374977 -0.020923 -0.199722 -0.166875 0.427608 -0.119893 
item_194 0.016668 0.282860 0.233096 -0.159783 -0.283838 0.044864 0.096474 0.086382 -0.062656 0.085786 0.066009 -0.018799 -0.273359 -0.221379 0.384110 -0.078898 -0.115845 0.106648 0.296565 -0.219975 0.129400 -0.195220 0.144892 -0.089602 -0.057275 -0.194461 -0.079970 0.051898 0.137922 0.169797 0.063988 0.096757 0.042770 -0.197044 0.248563 -0.069507 0.202494 -0.157218 0.158628 -0.189491 -0.015651 -0.082451 0.099455 0.094697 0.130679 0.278667 0.031658 0.153989 0.044210 -0.353967 -0.220673 -0.236010 -0.018650 -0.202566 0.115696 -0.055263 -0.140574 -0.068683 0.048478 -0.181443 0.069602 0.145121 0.265782 0.130628 -0.089806 0.318037 0.165525 -0.566304 0.195300 0.657107 -0.156462 -0.364253 -0.207110 -0.094354 -0.073007 0.001784 -0.081010 -0.245120 0.062316 0.085884 -0.302482 -0.328634 -0.868688 0.029981 0.170956 0.350261 -0.133775 0.048090 0.035231 0.060602 -0.025427 0.083494 0.076778 -0.182232 -0.186660 0.022599 -0.348416 0.281829 0.424256 -0.112190 -0.136050 0.100605 0.000362 0.110684 0.107016 -0.195594 0.201248 -0.037538 -0.233272 -0.076806 -0.011329 0.076546 0.089444 0.141120 -0.165549 0.162873 -0.024321 0.171282 0.085306 0.072300 -0.284017 -0.283084 -0.324801 0.224854 -0.129522 -0.284216 0.377763 0.209515 
item_25 0.241140 -0.138928 -0.099189 0.116147 0.337301 0.280930 -0.087335 0.217049 0.288785 -0.250383 0.580506 -0.288042 -0.164199 0.088604 -0.258279 0.204060 0.476678 0.194219 0.371386 -0.010805 -0.019321 -0.425555 -0.205945 0.078030 0.066635 -0.024547 0.278228 0.281110 -0.356887 -0.242005 0.316924 -0.250745 0.127112 -0.032992 0.257635 -0.055826 0.038682 0.090874 0.011808 0.009129 -0.054254 -0.371736 0.235999 0.075002 -0.078456 0.133311 0.131434 0.442447 -0.180965 -0.117490 0.230336 -0.235386 0.263299 0.289655 0.054053 0.205366 -0.058640 -0.043089 -0.217070 0.175065 0.513350 -0.182284 0.041977 0.067998 -0.160008 -0.435798 -0.197342 0.147507 0.205817 -0.395466 0.046160 0.303919 -0.243743 0.244923 0.146131 -0.109689 0.104791 0.074266 -0.461983 0.119726 -0.505100 -0.250788 -0.769586 -0.229505 -0.193931 -0.359751 -0.184660 0.135696 0.205921 0.045109 0.001388 0.034906 -0.169733 -0.298369 0.086416 0.125187 0.000956 -0.239100 0.042970 -0.345146 -0.091655 -0.043804 0.150075 -0.072265 -0.089947 0.445921 0.428690 -0.166381 0.069097 0.074357 0.126484 -0.034229 -0.090380 0.553246 0.009326 -0.096584 -0.161176 0.069152 0.190633 -0.123157 -0.021751 0.331761 -0.000312 0.044407 -0.090444 -0.116647 0.449541 0.253207 
item_135 0.000999 -0.147953 0.053865 0.198501 -0.083922 0.185403 0.084280 -0.528003 -0.453504 -0.298274 0.168050 0.092828 0.021871 0.084453 0.236234 -0.302164 -0.306046 -0.178697 0.539272 -0.022864 -0.127219 -0.112444 0.237365 0.223044 0.071500 -0.048814 -0.095439 -0.054808 -0.302608 0.024737 -0.042514 0.296440 0.064504 -0.323484 -0.090902 0.257158 -0.071342 -0.256541 0.058780 0.567239 0.110724 0.432259 0.154888 0.078206 -0.017601 -0.253156 0.095553 0.038233 0.154929 0.111715 -0.031679 -0.005921 -0.025017 -0.185362 0.159208 0.105034 -0.282631 -0.129188 -0.265707 -0.139552 0.177596 -0.051147 -0.200083 0.291532 0.071206 0.206599 -0.042399 -0.151087 0.013484 0.220850 0.143004 -0.123421 -0.295064 0.182875 0.170786 0.119727 0.098047 -0.183926 -0.090131 -0.212773 0.149581 0.203761 -0.754960 0.364137 -0.529886 0.006269 0.242350 -0.077783 0.152952 -0.053894 -0.021323 0.078964 0.107990 -0.137487 -0.003708 0.192850 -0.228998 0.024585 -0.144574 -0.041780 0.186878 0.075130 0.160535 0.276270 -0.009284 -0.502857 0.124524 0.312942 -0.024298 -0.429277 0.016558 -0.165284 -0.066290 -0.040430 -0.304601 0.335186 -0.068600 -0.257669 -0.036391 -0.327630 0.275340 0.046730 0.207309 0.024425 -0.183421 0.059013 0.056669 -0.194465 
item_196 0.163191 -0.521908 -0.472356 -0.269083 0.169111 0.225157 -0.392386 -0.117878 0.512562 0.286158 -0.356471 -0.251443 0.011845 -0.106182 0.247344 0.324196 -0.280202 0.022910 -0.110034 -0.231941 0.202981 0.360287 -0.019900 0.097795 -0.086084 -0.572103 0.059445 0.017099 -0.015963 0.239883 0.052603 -0.179340 -0.118218 -0.012163 -0.388679 0.398321 0.061204 0.210961 0.175004 0.249626 0.202104 -0.341726 0.041111 0.199136 0.264839 0.009990 0.304846 0.178932 -0.036101 -0.084725 -0.105238 0.501208 0.024866 -0.271858 -0.324406 0.101441 -0.022915 0.155582 -0.177951 0.217236 0.195011 -0.186273 0.152986 -0.094034 0.082584 -0.057232 -0.036407 0.258979 -0.114167 -0.046824 -0.260691 -0.424180 -0.137730 -0.105435 0.087420 -0.126390 -0.299368 0.147046 -0.104120 -0.225428 0.061995 0.065682 -1.055592 -0.254956 0.000144 0.105000 0.210520 -0.188344 -0.122908 -0.092054 0.041264 -0.226170 0.306855 0.299479 0.142190 0.009282 0.078871 0.111920 0.173183 0.077433 -0.204162 0.090930 -0.190721 -0.123702 0.239734 0.016813 -0.039814 0.209264 0.132152 -0.109196 0.063319 0.068134 -0.260978 0.241294 0.034381 0.154504 -0.180165 0.372324 0.150248 -0.153581 -0.155212 -0.098134 0.151721 0.060035 -0.133164 -0.134064 0.332569 0.048456 
item_186 -0.007492 0.079473 -0.116471 0.145066 -0.014227 -0.073437 -0.648326 -0.243244 0.207193 0.128906 0.172229 0.323237 0.122482 0.013893 0.018880 -0.162538 -0.024774 -0.101564 0.108425 -0.151488 0.221618 -0.064602 -0.021371 0.015672 -0.161410 -0.188412 -0.088558 0.193860 -0.025483 -0.296088 -0.282236 -0.083355 -0.365507 0.000108 -0.088694 -0.095040 -0.133539 -0.458645 -0.051491 -0.019592 0.580935 -0.217511 0.023952 0.382838 0.180718 0.002442 -0.200909 -0.332725 -0.171827 0.105296 -0.294295 -0.186431 0.025564 0.124644 -0.138713 0.065186 -0.275392 0.442680 -0.267797 0.138145 -0.015213 -0.100324 0.274606 0.405078 -0.269036 0.249566 0.324121 -0.018493 -0.018651 -0.013587 0.155845 -0.231940 0.025769 -0.117016 0.408382 0.114883 0.011217 0.110251 -0.017685 -0.008040 -0.263516 0.045721 -0.683200 -0.034991 0.224114 -0.160018 0.206992 -0.376832 0.104145 0.042966 -0.288288 0.250749 -0.192481 0.170049 -0.026926 -0.447041 -0.216864 0.152487 0.011943 0.048713 0.201908 -0.012914 0.276729 -0.711936 0.209679 -0.296519 -0.096104 0.208247 0.253505 -0.226284 -0.335318 0.075420 -0.072829 -0.061544 -0.174389 -0.067049 0.035725 -0.092504 0.204730 0.049612 0.123306 0.112960 -0.123579 -0.046411 -0.165159 0.024194 0.171614 -0.040879 
item_238 0.099820 -0.017665 -0.106594 0.063642 -0.394029 -0.331188 -0.323210 -0.304325 -0.425428 0.207651 -0.214739 0.026246 0.240677 -0.222597 0.042730 -0.262487 -0.130300 0.137780 -0.150773 0.000782 -0.128984 -0.448076 0.184171 0.239170 -0.280607 0.276530 0.309984 -0.029837 0.132880 -0.255465 0.030479 0.072290 -0.125778 0.116767 -0.061461 0.226827 -0.138701 0.139366 -0.011595 -0.010709 0.133449 0.035935 -0.168564 -0.302827 0.197874 -0.006449 0.098273 0.060450 -0.088667 0.051501 -0.191097 0.261316 -0.114718 0.098177 0.013324 -0.095895 -0.096480 0.226864 0.168349 -0.014973 0.160871 -0.275438 0.315096 -0.107970 0.084359 -0.096647 -0.179146 0.094836 -0.262375 0.158249 0.383823 -0.311754 0.263891 -0.128472 -0.156025 -0.045605 0.164544 0.113761 0.479909 0.155329 0.416639 0.314480 -0.557243 -0.025228 0.725350 0.405879 0.255396 0.412971 -0.129244 -0.227933 0.134902 0.034836 -0.205485 -0.397075 0.449109 0.048429 -0.170004 -0.222217 0.298103 -0.322864 0.224852 0.120580 0.199186 -0.181263 -0.125079 -0.382718 0.181522 -0.105507 -0.430005 0.477652 -0.006868 -0.196989 0.003780 0.092012 0.302069 -0.143622 -0.247948 0.388407 0.111384 0.040099 0.557187 0.414707 -0.299393 -0.135435 -0.088622 -0.091491 0.177850 -0.168263 
item_82 -0.040607 0.114595 -0.086588 -0.136973 -0.341005 -0.154746 -0.047560 -0.269673 0.317852 0.137723 -0.273280 -0.219744 0.067363 0.354098 -0.163182 -0.040038 0.033498 -0.139977 0.341150 0.483610 -0.491744 -0.118302 0.066360 0.224044 -0.050213 0.111336 0.024234 -0.462709 -0.004274 -0.165859 0.046041 -0.035398 -0.002706 0.002955 -0.068136 -0.174506 -0.274360 -0.204757 -0.289367 0.223049 0.157071 -0.181784 0.087600 0.128358 -0.078504 -0.179268 0.089463 -0.162386 0.204286 0.392374 -0.369496 0.018077 -0.139278 0.067842 -0.189591 0.080465 -0.146531 0.074720 0.017962 0.189198 -0.012585 -0.346590 0.174532 0.185306 0.377168 -0.099014 0.093310 0.018611 -0.196789 0.146684 0.074275 -0.258631 -0.094729 -0.124197 0.233453 -0.389878 -0.362771 -0.106980 0.150593 -0.090967 -0.113699 0.240922 -0.635164 -0.558053 0.145249 -0.165967 -0.058730 -0.284307 0.265079 -0.047530 -0.119375 -0.104822 0.058033 -0.415765 -0.006441 -0.114078 -0.031064 -0.047166 0.350948 -0.207522 0.288493 0.313843 0.047343 -0.364731 -0.129366 -0.252673 -0.437574 0.089678 -0.490582 0.094919 -0.173501 -0.109657 0.011275 0.333259 0.118697 0.230939 0.037745 -0.430655 0.305960 -0.001979 0.001119 0.094234 -0.628092 -0.213972 0.025793 0.290803 -0.340070 0.206491 
item_132 -0.205291 0.126093 -0.293846 0.168000 -0.247158 0.034211 0.096936 0.008060 -0.015317 0.118675 -0.257821 0.352771 0.071279 0.122942 0.103799 0.321121 0.062554 0.017325 0.101097 -0.086579 -0.077818 -0.033316 0.161288 -0.279698 -0.217086 -0.210470 0.046301 -0.236002 0.062792 0.037957 0.057200 0.254219 -0.240095 0.008965 0.240970 -0.408154 -0.096735 0.041407 -0.316493 -0.259290 0.288467 0.135676 -0.251217 0.357300 -0.073600 0.142460 0.044075 -0.130854 -0.118406 0.222961 -0.209100 0.248948 -0.125162 -0.142244 -0.383553 0.114949 -0.221900 0.306495 -0.025567 0.133304 -0.032363 -0.036198 0.145593 0.255024 0.018801 -0.187657 -0.077780 -0.409232 -0.126582 0.137856 0.325431 -0.165806 -0.094123 0.113364 0.289264 -0.288109 -0.189063 0.142408 0.247010 -0.519823 0.179780 -0.044026 -0.786423 -0.076125 -0.177269 -0.284719 0.483712 -0.280676 0.172941 -0.106474 -0.122031 0.165340 -0.141467 -0.090428 0.352466 0.228123 -0.224980 -0.047840 0.243934 -0.059993 -0.380794 -0.055327 0.183489 -0.201217 0.228286 -0.081097 0.124427 0.109535 -0.189600 0.017887 0.115534 0.170382 0.143681 -0.153549 -0.201778 -0.004655 -0.120947 0.295424 0.171494 0.096176 -0.351118 0.101311 -0.028103 0.196922 -0.106083 0.095673 0.164349 0.026732 
item_70 0.087656 0.312228 0.094513 0.302161 0.264894 0.138096 -0.105402 -0.337033 0.184688 -0.186549 -0.028565 0.016516 -0.151338 0.002695 0.044895 0.065155 0.047746 -0.225927 0.485756 -0.084024 0.095553 -0.114987 -0.512910 -0.149002 -0.362169 0.173072 -0.113344 -0.020806 0.136590 0.035729 0.086411 0.445814 0.012292 0.240916 -0.374650 -0.197482 -0.482884 0.128076 0.059013 -0.096766 -0.112089 -0.197208 0.115163 -0.193373 -0.034595 0.146328 -0.189768 -0.210359 0.005368 -0.292000 0.014971 0.524389 0.059809 0.101414 0.185999 0.047755 0.176796 -0.399002 0.183590 -0.109644 0.398270 -0.136651 0.158452 0.038225 0.086108 0.074671 0.206404 0.201601 -0.178416 0.119456 -0.091429 -0.167175 0.447261 0.094253 0.057641 -0.123434 0.080964 0.035084 0.289088 0.279002 -0.275590 0.410615 -0.735325 0.197615 -0.223501 -0.159175 -0.353876 0.229769 0.117854 0.139711 0.567245 0.122641 0.542797 -0.126408 -0.061465 -0.069168 0.024120 -0.314051 0.220855 -0.014361 -0.125204 -0.132945 -0.307103 -0.069323 0.560442 0.137187 -0.006190 0.506371 -0.449381 0.195215 -0.212596 0.144075 0.246584 -0.102911 0.097208 -0.060321 -0.113509 -0.233571 0.391337 -0.006179 -0.278213 0.064922 -0.472418 0.107838 -0.023055 0.184749 0.798777 -0.247647 
item_228 0.115189 0.386940 -0.248737 -0.066710 0.103090 0.060103 -0.128616 -0.438269 0.192794 0.347972 -0.463293 -0.099234 0.125977 -0.123345 0.396907 -0.250780 0.135750 0.015588 0.149591 0.346171 -0.050024 -0.009546 -0.164338 0.126955 0.105354 -0.132969 0.379608 0.070909 -0.396101 0.066226 -0.256389 0.249180 0.148552 0.174468 0.135336 -0.001219 0.193767 -0.494287 0.093840 -0.004038 0.086272 -0.011066 0.059074 0.113564 0.222309 -0.407109 -0.031726 0.014832 -0.043953 -0.230954 0.075349 0.127009 -0.081244 -0.059260 0.097152 -0.270509 -0.164365 0.229414 -0.205359 0.103804 0.221737 -0.214350 -0.077991 -0.365943 -0.063169 -0.061981 0.303087 -0.217406 -0.074124 -0.244020 0.122808 -0.309625 -0.257831 0.306947 -0.030468 -0.165895 0.202416 -0.167668 0.157731 0.039733 -0.174944 0.175405 -0.631942 0.116504 -0.025225 -0.068051 0.080944 0.150426 -0.189071 -0.148044 0.035737 -0.073476 -0.051741 -0.055205 0.430653 0.089943 -0.090983 0.255877 -0.021334 -0.271764 0.315072 -0.172654 0.301517 -0.146346 -0.243595 -0.286118 -0.251615 0.464171 -0.327093 -0.146051 -0.385297 -0.108102 0.061277 -0.129458 0.257956 0.151221 0.296187 0.031258 0.212139 -0.140469 0.534028 0.091679 0.266377 0.191868 -0.046470 -0.136495 -0.255181 0.161990 
item_144 -0.122832 -0.125731 0.015219 -0.191041 0.063949 0.000258 0.136638 -0.149585 0.087470 0.085596 0.093330 -0.466914 0.276726 -0.033979 -0.005086 -0.075026 0.175043 -0.115076 0.136723 -0.285053 -0.170912 -0.107401 -0.239445 0.335697 0.385321 0.007269 0.035090 -0.474573 0.151329 -0.041584 -0.232105 -0.182385 0.028886 0.162759 -0.120880 -0.189097 -0.149062 0.172947 0.144617 -0.191157 -0.270073 -0.063856 -0.507651 -0.135609 0.222794 0.191303 0.131130 0.088551 -0.157948 0.052009 -0.014686 0.051487 0.114785 -0.036201 0.160885 0.258073 -0.056520 -0.074928 0.117412 -0.130996 -0.320619 0.037729 0.307912 -0.028007 -0.197691 -0.077625 -0.398798 -0.181160 0.045883 0.291130 0.367715 -0.140441 -0.167137 -0.076069 -0.077411 0.181109 0.113421 -0.314287 -0.112300 -0.158521 0.037339 0.218069 -0.862366 0.035777 0.369763 -0.165570 0.209545 0.217503 -0.062893 0.369237 -0.277753 0.049153 -0.190119 0.186680 0.336439 -0.375465 -0.156457 0.184767 0.256498 -0.160165 -0.023948 -0.183570 0.015787 0.083194 0.279753 0.011356 0.237374 0.007740 0.161116 -0.054351 -0.169553 -0.164554 -0.074683 0.175137 0.383877 0.266203 0.139020 0.287366 -0.057069 -0.176054 0.077459 0.016750 -0.068776 0.495146 0.129047 0.035740 0.276141 0.181669 
item_197 -0.027124 -0.260217 -0.171950 -0.227159 -0.129820 0.206995 -0.030737 -0.240586 0.084001 -0.076539 -0.144900 0.125704 -0.011599 -0.054679 0.436553 -0.028979 -0.298431 0.636934 -0.006738 0.311825 0.128752 0.237774 -0.344153 0.321140 0.115550 -0.223714 0.126814 -0.110681 0.122090 -0.177824 0.150218 0.060543 -0.270558 0.082291 -0.433314 0.043423 -0.144503 0.088244 -0.086361 -0.033184 -0.190157 -0.205267 0.045896 -0.207032 -0.012530 0.166302 0.214736 -0.154458 0.372817 0.081326 0.104119 -0.097657 -0.161743 -0.078216 0.162343 0.238500 -0.234323 -0.035683 0.042634 0.077674 0.079195 0.359578 0.185322 -0.177347 -0.042397 0.063706 -0.009831 -0.029439 -0.118136 0.180590 0.052483 -0.384866 0.224708 0.042842 -0.039673 0.012266 0.390210 0.315861 0.028804 0.244705 0.076711 0.081861 -0.596995 0.015823 -0.208057 0.098179 0.692519 0.119235 0.271274 -0.297525 -0.468677 0.208469 0.176559 -0.101489 -0.043421 0.141990 0.238259 -0.060647 0.335539 -0.242201 0.026547 -0.284550 0.016713 0.107285 -0.331277 0.085630 0.118645 0.292269 -0.382281 0.201490 -0.057364 0.265041 0.091801 -0.323999 -0.259788 0.068154 0.258270 0.071606 0.120810 -0.474461 0.191555 0.108869 -0.141291 0.343288 -0.425486 0.194974 0.286233 0.213372 
item_97 0.214141 0.045932 -0.133697 -0.159912 -0.182640 0.095875 -0.017958 -0.430180 -0.174868 0.193404 0.394293 0.078826 0.192375 -0.178956 0.019782 -0.077405 0.325666 -0.046389 0.373184 -0.060762 -0.018157 0.267190 -0.359125 -0.273211 -0.111231 -0.195380 0.450863 -0.203220 0.166480 0.028191 0.063671 -0.049165 0.269811 -0.173162 0.203254 0.059662 -0.086264 0.056107 -0.290444 0.124097 0.034483 -0.179954 0.058747 -0.101568 0.107281 0.119624 0.109548 -0.224342 -0.021229 0.125772 -0.254743 0.020447 -0.299035 -0.061225 -0.242936 0.004716 0.014031 -0.022829 0.144667 0.132532 0.461606 0.080880 0.156105 -0.079795 0.103473 -0.255263 0.136510 -0.274174 -0.003720 0.291721 0.454754 0.056372 0.034079 0.174943 0.122390 -0.272756 -0.278317 0.143569 0.436472 -0.171894 -0.057965 0.396591 -0.751145 0.160986 -0.206552 0.051359 0.327391 0.103029 0.072604 0.176031 -0.161890 0.155296 -0.238614 0.109893 0.011074 0.197101 0.236684 -0.112046 -0.001172 0.028052 -0.116597 -0.307806 0.253402 -0.051410 0.001179 0.104798 0.167852 0.106545 0.020506 -0.189731 0.117996 0.194308 -0.325258 0.044766 0.052468 0.149557 -0.133422 -0.229992 0.215538 0.067422 -0.086260 0.146486 -0.074365 0.067125 -0.052510 0.016804 0.092886 0.013550 
item_475 -0.328879 0.030849 -0.484244 -0.103456 0.376614 0.317485 -0.142456 -0.095116 0.041708 0.005469 0.271651 -0.213487 0.014188 0.061599 0.077998 0.072101 0.078659 0.118983 0.005304 0.146691 -0.544797 -0.572221 0.134544 -0.058053 0.030379 0.259522 0.029740 0.193394 0.021530 -0.157477 0.514302 0.327799 -0.371380 -0.147092 0.273657 -0.257278 -0.047799 -0.200953 -0.227742 -0.268494 -0.325659 -0.478181 -0.133350 -0.005734 -0.232448 -0.148304 0.541228 0.058085 -0.119192 0.015501 0.179851 0.110749 -0.071458 0.136418 -0.269615 0.334483 -0.369570 -0.251757 -0.206732 -0.146923 0.159182 -0.208028 0.087618 0.025958 -0.092780 0.068196 -0.090537 -0.106508 -0.134013 -0.395262 -0.186153 0.383335 0.097924 0.389950 0.237928 -0.128154 0.395254 0.362195 0.310860 -0.033595 0.187296 -0.092589 -0.554115 0.393698 0.015631 0.022454 -0.189868 0.439177 0.170471 -0.059010 -0.125806 0.041116 0.040486 -0.160724 0.213094 0.236890 0.438253 0.179949 0.230615 -0.224921 -0.062094 0.586763 0.325352 -0.438974 -0.363212 -0.104224 0.380452 -0.110943 -0.205666 -0.085100 0.315041 -0.198650 -0.196634 -0.253974 -0.243945 -0.396903 0.241414 0.307798 0.200537 0.195206 -0.393665 -0.107617 0.137134 0.203921 -0.113300 0.184476 0.354515 -0.035312 
item_153 0.000286 -0.013180 0.227733 -0.054764 0.194014 0.143356 -0.266624 -0.163835 -0.679641 0.261194 0.229752 0.103208 0.013740 -0.083860 0.088153 0.077584 0.254945 0.134179 0.237909 0.427912 -0.014148 -0.114214 -0.316928 -0.218305 0.121489 -0.338865 0.234382 0.035427 0.735796 -0.231484 -0.148905 0.118157 -0.423127 -0.006741 -0.347602 0.066017 -0.297210 -0.160314 -0.259077 0.312016 0.577312 -0.309926 -0.625864 -0.261204 0.370716 -0.090162 0.057413 0.085133 0.180805 0.158238 0.221131 -0.138261 -0.220589 0.574336 -0.122432 -0.150985 -0.462154 -0.257269 -0.062904 0.171794 0.087799 -0.172561 -0.035328 -0.283002 0.059827 0.005986 -0.269084 -0.145638 -0.028043 0.419662 0.122702 0.081968 0.022333 -0.399576 0.059745 -0.358690 0.057269 0.051387 0.168169 0.248919 -0.429585 -0.057892 -0.625390 -0.084727 -0.274754 0.288661 -0.275760 -0.154364 0.024614 0.267530 0.052675 -0.260965 0.226244 0.131216 0.285797 0.078395 -0.085373 -0.298765 -0.028895 -0.467244 0.157682 0.586217 -0.132086 0.405556 -0.084929 0.062461 -0.193056 0.252387 -0.363530 0.064060 -0.175722 0.218141 0.306883 0.004188 0.421771 -0.260794 0.147589 -0.214009 -0.289201 0.202732 -0.123031 0.185148 -0.184044 0.259486 0.167648 -0.205768 0.048889 -0.208557 
item_185 0.039428 0.027171 0.020305 -0.183369 -0.021430 0.217866 -0.289864 -0.260203 -0.059563 -0.065452 -0.182249 -0.100244 -0.250278 0.038959 -0.006620 -0.567162 -0.443693 -0.112810 0.087121 0.068585 -0.012995 0.005148 0.186646 0.172922 -0.109507 -0.291638 -0.177135 0.049076 0.014956 -0.174368 -0.066023 -0.300416 -0.207822 0.249195 -0.009094 0.428633 -0.202893 0.165619 0.319787 0.520485 0.183385 -0.249413 0.032576 -0.070847 0.020326 0.037849 0.067915 -0.100206 0.010846 0.000073 -0.207588 -0.098730 0.137688 -0.105460 0.451326 -0.151625 0.075287 -0.055390 -0.228330 0.505696 -0.267459 0.173128 -0.341520 0.118920 0.055115 0.286427 0.028462 0.100911 0.044829 -0.063339 0.024833 -0.276826 -0.279391 -0.171190 0.265526 0.006316 -0.214572 0.249904 -0.001846 0.048910 0.119882 0.056103 -0.914571 0.018942 -0.200673 0.286718 0.162360 -0.033696 -0.236302 0.306922 -0.337693 -0.124461 0.072036 -0.035255 0.022095 -0.003530 0.187443 -0.065197 0.231382 -0.349459 -0.544597 0.300021 -0.441010 0.033624 0.214331 0.030645 -0.024180 0.482718 0.173312 -0.571933 -0.022730 -0.088518 -0.171991 0.001653 -0.186384 0.163025 0.111136 0.213951 -0.023192 -0.174325 -0.038325 0.010919 0.184646 0.275414 0.178353 -0.303276 0.026094 -0.370287 
item_748 -0.016443 -0.316919 0.319434 0.197619 0.188591 -0.158000 0.192836 -0.148946 -0.023417 0.189399 0.026596 -0.165041 0.626822 0.143527 0.103014 -0.098397 0.301518 0.312236 0.155962 -0.143860 -0.160845 -0.094424 0.504926 -0.165510 -0.433969 0.223634 -0.117610 0.254062 0.002520 -0.345944 0.250636 0.228164 0.106027 -0.028475 -0.150701 -0.018592 0.302632 0.043298 0.017633 -0.166375 -0.259793 -0.033845 -0.199827 -0.163978 0.074026 0.065028 -0.429381 0.011473 0.253233 -0.039160 -0.271771 -0.166234 0.184347 0.333418 0.233728 -0.058219 -0.011106 -0.335938 -0.195665 -0.293602 0.087140 0.251499 0.004631 0.324625 -0.099742 -0.164512 0.017565 0.008958 -0.184404 -0.378151 0.136451 -0.128002 -0.202982 0.075977 -0.095302 0.106679 0.233849 -0.024763 0.338847 0.085308 0.033874 -0.220561 -0.780805 -0.212165 -0.039386 0.042588 -0.392315 -0.287320 0.145875 -0.288660 -0.230218 -0.307619 0.202817 -0.250009 0.132014 0.372115 0.030028 0.571795 -0.126671 -0.143513 0.052252 0.538137 0.391643 -0.270228 -0.364972 0.263481 0.064662 -0.167126 0.107377 -0.417170 0.114361 -0.032715 -0.368704 0.532511 -0.038012 0.321818 -0.109012 0.081829 -0.187168 -0.147307 -0.360298 -0.371668 0.192275 -0.521186 0.342350 -0.400108 0.124945 -0.071908 
item_268 -0.098425 0.197199 0.031501 0.186619 0.407562 -0.118090 0.089769 -0.454596 0.154021 -0.269571 0.206419 -0.295623 0.147376 0.296966 0.128666 0.147983 0.074861 0.363880 0.066367 0.412035 -0.011116 0.214828 0.278893 -0.421931 0.300250 0.438253 0.159076 0.145254 0.035722 -0.358206 0.260314 -0.232516 -0.296591 0.045901 -0.200435 0.307549 0.126149 -0.123504 -0.547076 -0.159856 0.050003 -0.127353 0.069046 -0.234381 0.103426 0.251849 0.311256 -0.059543 0.389637 -0.047395 -0.075509 -0.211214 0.215435 0.058764 -0.304295 -0.075522 -0.042254 -0.095294 0.077336 0.277518 0.064403 -0.483108 0.043131 0.518979 -0.254615 -0.241284 0.232149 -0.256929 -0.151956 0.028739 0.216018 0.322559 0.078719 0.338469 0.333336 -0.285796 0.113742 -0.210921 0.030203 -0.068835 0.285939 0.449308 -0.499142 0.320671 0.048281 -0.158262 0.385452 0.097830 0.155422 -0.324387 0.229338 -0.082335 0.260744 -0.054119 -0.012333 -0.204924 0.517194 0.315567 -0.353459 -0.134212 0.017713 0.449359 -0.063430 0.005851 -0.323512 0.122698 0.538737 -0.439147 0.526714 0.135417 -0.433824 0.567054 0.389746 0.346912 -0.109358 0.123573 -0.057571 0.273940 -0.041541 -0.049553 -0.465149 0.104706 0.349730 0.120008 -0.093455 0.266899 0.184088 -0.043171 
item_655 0.114424 -0.356756 -0.285294 -0.098022 0.053034 0.001908 -0.085221 -0.312599 -0.017619 0.300858 0.092503 0.160182 -0.041857 0.020450 0.153649 -0.321110 -0.104633 -0.049557 0.225301 0.016698 -0.067726 0.222164 -0.204116 0.136109 0.109997 -0.102230 -0.010777 -0.017486 0.108228 0.542775 -0.060111 -0.216961 -0.004350 0.112465 0.186583 0.133249 0.084809 0.409994 0.306957 0.079984 0.072227 -0.052659 -0.305779 -0.029773 0.459975 0.181787 0.143750 -0.335020 -0.311893 0.032816 0.147625 0.436082 -0.400700 -0.122866 -0.144949 -0.223115 -0.141193 0.179260 0.173729 0.437753 -0.224626 -0.027313 0.090985 -0.250314 -0.206837 0.469763 0.229879 -0.173845 -0.433186 -0.009003 0.113210 -0.444166 0.220178 0.219455 0.452118 -0.101436 0.344676 0.286605 -0.203623 -0.145048 0.135723 0.120283 -0.916404 0.239745 0.140638 -0.380648 0.120863 -0.295071 0.311382 -0.071341 -0.155499 0.257735 -0.091508 -0.144111 0.130580 0.131563 -0.050370 0.018687 -0.119041 -0.069362 -0.172259 0.016226 -0.126089 0.181839 0.458829 0.131192 -0.064910 0.523181 -0.092997 0.212851 0.085040 0.250558 0.073268 0.333277 0.264345 -0.289655 -0.366615 -0.627623 0.027345 -0.348697 -0.197289 0.099649 0.011956 0.483669 0.233650 -0.024985 -0.275277 -0.109133 
item_496 -0.043287 0.012153 -0.120885 -0.242189 -0.422909 -0.043052 0.270524 -0.388077 0.074866 0.230335 0.137884 -0.260895 0.093943 0.148111 -0.054187 -0.146631 -0.061838 0.143687 -0.349162 -0.731245 -0.007857 -0.128909 -0.023576 0.165125 -0.258432 0.003322 0.021867 0.075109 -0.159071 0.263960 -0.357237 -0.104961 -0.269593 -0.553920 -0.007127 0.132020 -0.105788 0.131703 -0.259981 0.547365 0.643063 -0.049166 -0.236727 -0.057518 0.259209 -0.006316 -0.452629 0.282642 -0.277794 0.176001 0.089095 -0.085348 -0.103042 0.169272 0.220493 -0.088611 0.022417 -0.234715 0.038314 0.030375 0.139744 0.335835 -0.179890 -0.192818 0.289017 -0.165451 -0.131429 -0.438656 -0.248202 0.232341 0.127564 -0.123575 -0.002538 -0.246773 -0.284642 -0.033692 0.465328 0.064493 0.181570 0.041182 -0.058352 -0.180827 -0.882294 -0.170784 -0.129532 0.214068 0.361238 -0.173008 -0.031771 0.008747 -0.228730 0.297810 -0.069775 -0.383320 0.249370 0.289424 -0.000417 -0.040491 -0.300187 -0.132718 -0.157943 0.093034 0.106346 -0.104014 0.014407 0.039087 -0.279804 -0.179348 -0.244443 0.134000 0.173474 0.237619 -0.113241 0.013984 -0.306523 -0.163967 0.132463 -0.139795 0.033704 0.075731 0.272710 -0.193196 0.257059 0.060584 0.122229 -0.073475 -0.088443 0.178461 
item_333 -0.044607 0.087128 0.226281 0.261146 -0.223306 -0.126106 0.136673 -0.051599 -0.236863 -0.305279 -0.007275 0.220892 0.029645 -0.189994 0.093988 0.161603 0.363640 0.220075 0.355183 0.247915 -0.259121 0.294951 0.204297 -0.284628 0.376460 0.292588 -0.083183 -0.199323 0.184080 -0.286196 0.104069 0.261448 0.036511 -0.010852 0.037156 0.054143 -0.595251 -0.248525 -0.264901 -0.180275 -0.379076 0.015345 0.120394 0.485022 0.497599 -0.410299 0.173848 0.210410 0.224371 -0.028550 -0.358375 -0.036921 -0.199446 0.270706 0.005552 0.124747 0.289587 -0.314441 -0.046928 0.147837 0.092259 0.262309 -0.263692 -0.149656 0.123880 -0.089622 -0.257203 -0.153205 0.256895 -0.007030 0.056447 -0.226702 0.110846 0.373830 0.313783 0.026287 0.567196 0.179667 0.258255 -0.086287 -0.128535 -0.211491 -0.690415 -0.177835 0.330143 -0.242445 -0.110126 0.278647 0.407224 0.241335 -0.102634 -0.321969 -0.244273 -0.324057 -0.135768 0.254544 0.553259 0.243044 -0.417218 -0.033906 0.106301 -0.080635 -0.290280 0.049949 -0.245920 -0.084130 0.220655 -0.139723 0.177653 -0.096201 0.051992 0.211002 -0.037892 0.345568 -0.087818 -0.094297 0.162117 -0.007974 0.124037 -0.128432 -0.148291 -0.037349 -0.137727 -0.270992 -0.439464 -0.244943 -0.125987 -0.090431 
item_125 0.102760 -0.185595 0.358383 0.530023 0.580683 -0.050967 0.020158 -0.375724 0.421026 0.025185 0.597101 0.042117 -0.044538 -0.235439 -0.165540 0.013557 0.146578 0.090779 0.018911 0.039781 0.115694 0.304149 0.135515 -0.010417 -0.327098 -0.076308 -0.067870 0.058917 0.013035 0.332204 0.018459 0.096756 0.271609 -0.051580 -0.089161 0.069322 -0.250183 -0.468284 -0.087259 0.184318 -0.014346 0.078519 0.190992 -0.219470 0.154482 -0.075865 0.226842 0.245787 0.354394 -0.042273 -0.019475 0.121536 -0.343419 0.173208 -0.175641 -0.272585 -0.003173 -0.337125 -0.014080 -0.342928 -0.001223 -0.084785 -0.228318 0.204481 -0.021866 0.007618 0.009691 0.190592 -0.104461 0.155066 0.207521 0.321895 0.328087 0.036979 0.059080 -0.422368 0.330738 0.177370 0.189533 0.432864 -0.247040 0.260262 -0.627757 -0.383768 0.201763 -0.120388 -0.344803 0.330248 0.467062 -0.286656 -0.259666 0.121494 -0.103162 0.188912 -0.320991 -0.231990 -0.020727 0.251578 -0.005588 -0.406656 -0.039282 0.594354 0.351216 0.292899 0.099873 0.374218 0.149623 0.089185 -0.013338 -0.396193 0.423818 0.084461 0.175246 -0.192185 0.189879 0.362304 0.235441 0.372831 0.627108 0.008957 0.161917 -0.003021 0.207119 0.088027 -0.257957 -0.247106 -0.330440 -0.007749 
item_427 -0.428360 0.179426 -0.227689 0.188541 0.471477 -0.010914 -0.130681 -0.012529 -0.003999 0.110184 -0.238754 0.206169 -0.254708 0.023016 -0.061743 0.242440 -0.027653 -0.027949 0.406985 0.229006 -0.368806 -0.025561 0.083692 0.324059 0.203736 0.065731 -0.315033 0.202913 -0.058520 -0.292739 0.082370 0.035806 -0.009310 -0.030070 0.342920 -0.346701 0.213071 -0.155046 -0.004958 0.278520 0.545098 0.143898 -0.097316 0.144190 -0.139235 0.104699 -0.118332 -0.268893 -0.164369 -0.052106 -0.131017 -0.053589 0.324373 -0.156124 0.682576 0.391876 -0.084053 -0.110376 -0.105791 0.246383 -0.099664 0.077232 -0.346902 -0.335834 0.128854 -0.002744 -0.058752 0.183246 -0.090762 0.317982 0.563865 0.139625 0.169113 -0.201641 -0.043997 -0.050079 -0.322853 -0.043741 0.229477 0.063189 0.161927 -0.047086 -0.656102 0.432288 -0.095636 -0.310499 0.315198 -0.104376 0.240957 -0.228536 -0.317583 0.418379 0.172037 -0.124729 0.027566 0.061004 0.300915 0.160743 0.047696 -0.188852 -0.051650 -0.056130 -0.049625 -0.158946 -0.277091 0.025147 -0.097005 0.028738 0.122184 -0.481615 0.213522 -0.191337 0.341761 0.142215 0.180219 -0.154841 0.073081 -0.014716 0.506551 -0.145956 -0.084973 -0.158424 -0.236373 0.438787 -0.184307 0.488080 0.278467 0.178949 
item_118 -0.077836 0.134844 -0.214495 -0.136638 -0.261607 0.108165 -0.233503 -0.086909 0.041813 -0.061626 -0.292454 -0.518872 0.222139 -0.091718 -0.079661 0.187452 0.302049 0.138733 0.071662 0.393072 -0.364611 0.217299 0.194576 -0.037239 -0.711242 0.175381 -0.117978 -0.042961 -0.019048 -0.076952 -0.227958 0.216482 -0.204346 -0.041835 -0.417051 -0.042080 -0.116290 -0.074316 0.419109 0.165853 0.122244 -0.510895 0.210074 0.227386 0.057622 0.006053 -0.247613 -0.218409 0.424010 0.124063 -0.069855 -0.136179 -0.043472 0.332422 -0.024957 0.384822 -0.160261 0.301029 -0.101265 0.238788 -0.139122 -0.102067 -0.150139 -0.024959 -0.419368 0.098922 0.093744 0.032624 -0.119988 -0.046545 0.098068 0.187167 -0.100713 0.274011 0.363297 -0.032769 0.430924 -0.334340 -0.156568 -0.032742 -0.196592 0.375458 -0.427104 -0.040155 0.273064 -0.118017 0.208438 0.013684 0.924615 -0.027720 -0.098684 0.356179 -0.278731 -0.292833 -0.139362 -0.178532 -0.237027 -0.186810 0.298741 0.091664 0.232170 0.281782 0.128516 -0.311583 -0.310984 0.291555 0.418203 -0.217741 0.018039 0.332941 0.179135 -0.084956 -0.028746 0.233604 -0.171107 0.353433 -0.172413 -0.278944 0.200037 -0.268310 0.096552 -0.013826 0.513435 -0.214808 -0.134207 -0.118048 0.119318 -0.099568 
item_265 0.232749 0.076024 0.079224 -0.431044 -0.163912 -0.065575 -0.154412 -0.132237 -0.504260 0.185443 -0.055884 -0.385064 0.273432 -0.053032 0.001142 -0.362560 0.217092 -0.482153 0.038562 -0.258517 0.094221 0.242690 0.079598 -0.285897 -0.053550 -0.328648 0.276398 -0.005189 -0.423641 0.240237 -0.102991 -0.141161 -0.038119 -0.229122 -0.081487 0.117436 -0.080817 -0.232980 -0.288868 -0.180628 -0.117889 -0.264856 -0.452187 -0.095646 0.032262 0.193397 0.066985 -0.107753 -0.045189 -0.307694 -0.072147 0.321724 0.270643 0.310761 0.236651 -0.023787 -0.704875 0.042490 0.294434 -0.159808 -0.072450 -0.037739 0.323583 0.049624 0.117688 0.031453 -0.134091 -0.078999 0.040061 -0.012328 0.114204 -0.259373 0.321723 0.108365 -0.075958 0.040947 -0.008362 -0.153238 0.281105 -0.028747 -0.157292 -0.149237 -0.971210 0.065702 0.102838 -0.012613 0.038397 -0.113975 -0.178872 0.020385 -0.374540 -0.352951 0.161481 -0.044220 0.345199 -0.301623 -0.034085 -0.082614 0.375148 0.028130 -0.095634 0.164187 -0.440784 -0.064757 -0.288023 0.399435 0.219282 -0.025558 0.056350 -0.225705 0.239463 -0.354952 -0.088715 0.123924 0.162050 -0.208951 0.290838 0.008508 0.060043 -0.091740 -0.298114 0.015824 -0.095093 0.213855 -0.187818 0.309880 -0.086551 0.183123 
